tree
version=v4
num_class=1
num_tree_per_iteration=1
label_index=0
max_feature_idx=4
objective=binary sigmoid:1
feature_names=lat_center lon_center elevation is_forest month
feature_infos=[38.606306306305662:40.498198198196881] [139.40329670329689:141.28241758241958] [-4:2034] [0:1] [1:12]
tree_sizes=3145 3402 3411 3418 3415 3424 3420 3426 3425 3398 3425 3427 3444 3432 3441 3439 3427 3436 3445 3439 3420 3453 3430 3435 3430 3450 3429 3436 3444 3425 3453 3431 3432 3417 3454 3430 3446 3417 3421 3438 3424 3454 3434 3439 3424 3445 3444 3464 3450 3452 3462 3457 3458 3465 3460 3481 3471 3475 3469 3485 3460 3481 3456 3489 3472 3479 3485 3457 3497 3480 3483 3499 3467 3465 3459 3494 3475 3499 3468 3486 3501 3493 3457 3475 3515 3524 3484 3512 3554 3544 3566 3445 3554 3516 3464 3533 3557 3537 3552 3471 3540 3572 3552 3536 3564 3469 3531 3548 3475 3532 3580 3559 3485 3538 3576 3463 3479 3463 3468 3549 3487 3552 3464 3543 3455 3572 3451 3460 3433 3441 3542 3459 3463 3442 3511 3453 3497 3434 3480 3536 3427 3446 3452 3413 3557 3547 3425 3453 3438 3466 3521 3459 3420 3427 3442 3530 3421 3415 3469 3414 3409 3466 3455 3450 3408 3486 3410 3447 3417 3453 3440 3418 3437 3459 3402 3541 3452 3463 3437 3457 3439 3469 3439 3445 3411 3455 3572 3434 3416 3442 3463 3421 3441 3428 3422 3448 3426 3492 3457 3464 3444 3476 3447 3514 3444 3477 3461 3447 3438 3428 3526 3436 3479 3439 3449 3473 3424 3440 3414 3425 3476 3452 3424 3426 3432 3431 3552 3447 3420 3452 3462 3413 3437 3425 3411 3554 3483 3430 3459 3442 3431 3514 3433 3469 3412 3451 3431 3437 3438 3429 3448 3555 3464 3448 3444 3422 3457 3438 3403 3438 3474 3438 3439 3441 3446 3424 3422 3431 3411 3413 3439 3435 3434 3419 3429 3422 3443 3498 3445 3436 3453 3414 3422 3422 3449 3435 3426 3423 3444 3444 3435 3443 3434 3426 3463 3413 3416 3407 3463 3453 3443 3453 3445 3463 3451 3436 3419 3440 3418 3444 3413 3464 3457 3494 3429 3420 3465 3452 3480 3449 3462 3474 3557 3542 3431 3441 3431 3420 3405 3421 3415 3436 3422 3415 3466 3410 3434 3463 3443 3419 3421 3484 3516 3432 3418 3433 3424 3420 3443 3456 3479 3463 3463 3424 3434 3415 3477 3451 3435 3494 3447 3424 3409 3415 3419 3432 3585 3526 3527 3436 3418 3448 3438 3427 3432 3424 3457 3448 3523 3563 3463 3500 3439 3429 3458 3565 3413 3409 3410 3388 3456 3516 3426 3437 3444 3435 3568 3411 3529 3442 3471 3416 3415 3429 3444 3439 3461 3394 3437 3430 3447 3422 3447 3443 3429 3438 3439 3427 3424 3431 3448 3423 3479 3441 3422 3441 3529 3426 3403 3455 3407 3431 3430 3415 3421 3464 3386 3425 3417 3394 3427 3494 3382 3437 3405 3414 3405 3451 3442 3518 3440 3431 3420 3449 3443 3435 3405 3416 3416 3430 3496 3441 3431 3434 3445 3423 3401 3432 3428 3449 3431 3430 3443 3427 3448 3434 3441 3427 3418 3492 3467 3506 3439 3438 3435 3461 3444 3442 3448 3457 3437 3434 3451 3455 3442

Tree=0
num_leaves=31
num_cat=0
split_feature=1 1 3 0 1 0 0 0 1 0 1 1 1 1 0 0 0 1 0 0 0 3 1 1 0 0 3 0 0 3
split_gain=1670.85 2915.84 4502.36 1945.73 1871.69 1017.37 378.853 370.355 284.177 122.506 96.0459 57.2204 36.3802 33.3878 130.603 33.6364 41.071 30.6767 24.9544 24.5426 133.767 51.6448 23.9377 16.9241 15.6605 15.6058 15.2489 32.1943 6.4466 3.19819
threshold=140.00219780219859 140.82637362637522 1.0000000180025095e-35 39.53873873873777 140.06813186813272 39.160360360359526 40.358558558557299 39.007207207206427 140.40879120879239 39.592792792791805 140.0571428571437 139.9032967032974 140.40879120879239 140.8703296703313 40.106306306305136 40.133333333332153 40.259459459458235 140.59560439560576 39.034234234233445 39.115315315314497 39.313513513512625 1.0000000180025095e-35 140.83736263736424 140.26593406593511 39.196396396395549 39.268468468467596 1.0000000180025095e-35 40.421621621620339 39.899099099098002 1.0000000180025095e-35
decision_type=2 2 2 2 2 2 2 2 2 2 2 2 2 2 2 2 2 2 2 2 2 2 2 2 2 2 2 2 2 2
left_child=11 2 3 7 10 18 8 -2 -7 -6 -5 29 -9 14 -3 22 -17 -8 -4 -13 21 25 -16 -20 -23 -21 28 -28 -22 -1
right_child=1 13 5 4 9 6 17 12 -10 -11 -12 19 -14 -15 15 16 -18 -19 23 20 26 24 -24 -25 -26 -27 27 -29 -30 -31
leaf_value=-2.7610383947040282 -2.7613835344355433 -2.7607528372194805 -2.7586237241724989 -2.668409783986065 -2.4553605459297962 -2.6250554027735666 -2.7577742695815655 -2.5552164371056554 -2.6800102964210839 -2.3140357840005445 -2.5109026057456596 -2.7613835344355433 -2.6101108071628163 -2.7607048493878232 -2.192494645546657 -2.7530987447915303 -2.5981962834395276 -2.7047580200322514 -2.7588093765672679 -2.5143659905758944 -2.7582634856847816 -2.7362854952198572 -2.5582089312609404 -2.7182924862335542 -2.624065526772708 -2.624065526772708 -2.5622724233244321 -2.7613835344355433 -2.7356710422823731 -2.7486607797319582
leaf_weight=1014.08203125 42.1875 79.27734375 362.34375 54.31640625 16.9921875 458.0859375 96.97265625 45.3515625 483.57421875 157.1484375 11.777343749999998 53.90625 90.234375 884.0625 0.70312500000000255 6.0351562500000027 14.707031249999998 37.96875 38.84765625 8.9062499999999982 64.1015625 7.96875 1.2304687499999998 76.58203125 5.09765625 5.0976562500000009 3.5156249999999982 4.8046875 62.2265625 55.01953125
leaf_count=17307 720 1353 6184 927 290 7818 1655 774 8253 2682 201 920 1540 15088 12 103 251 648 663 152 1094 136 21 1307 87 87 60 82 1062 939
internal_value=-2.70805 -2.68737 -2.65228 -2.5066 -2.41381 -2.69145 -2.6645 -2.63201 -2.65328 -2.32783 -2.64034 -2.75566 -2.59175 -2.75758 -2.73049 -2.62467 -2.64327 -2.74286 -2.75217 -2.73217 -2.72243 -2.62101 -2.42522 -2.73193 -2.6925 -2.5543 -2.74282 -2.67725 -2.74713 -2.7604
internal_weight=4243.12 2958.4 1972.38 418.008 240.234 1554.38 1076.6 177.773 941.66 174.141 66.0938 1284.73 135.586 986.016 101.953 22.6758 20.7422 134.941 477.773 215.625 161.719 27.0703 1.93359 115.43 13.0664 14.0039 134.648 8.32031 126.328 1069.1
internal_count=72416 50490 33662 7134 4100 26528 18374 3034 16071 2972 1128 21926 2314 16828 1740 387 354 2303 8154 3680 2760 462 33 1970 223 239 2298 142 2156 18246
is_linear=0
shrinkage=1


Tree=1
num_leaves=31
num_cat=0
split_feature=1 2 0 2 2 1 1 0 1 1 0 0 1 1 1 1 0 0 0 0 2 4 2 1 0 0 0 1 0 0
split_gain=1532.81 4501.85 3090.4 799.959 740.036 814.98 655.595 635.001 551.901 286.314 237.593 236.27 159.96 151.696 57.5793 41.9026 46.4184 36.5709 23.9824 117.966 52.1896 34.554 23.2509 29.3532 26.9211 13.479 7.93782 10.8471 7.73499 4.5437
threshold=140.00219780219859 103.50000000000001 39.493693693692741 2.5000000000000004 281.50000000000006 140.84835164835326 140.57362637362772 39.36756756756666 140.6175824175838 141.14505494505684 39.007207207206427 39.115315315314497 140.5626373626387 140.29890109890218 139.9032967032974 140.04615384615468 40.349549549548293 39.592792792791805 39.115315315314497 39.340540540539642 158.50000000000003 7.5000000000000009 400.50000000000006 140.89230769230934 38.98018018017941 39.899099099098002 39.953153153152037 140.8703296703313 40.052252252251101 39.196396396395549
decision_type=2 2 2 2 2 2 2 2 2 2 2 2 2 2 2 2 2 2 2 2 2 2 2 2 2 2 2 2 2 2
left_child=14 2 8 15 5 6 10 -8 11 13 -3 -2 -13 -5 -1 16 -4 -17 -16 20 21 -20 23 24 -6 -21 -24 -28 -27 -22
right_child=1 4 3 9 22 -7 7 -9 -10 -11 -12 12 -14 -15 18 17 -18 -19 19 25 29 -23 26 -25 -26 28 27 -29 -30 -31
leaf_value=-0.052135022369480824 -0.053164014337301349 -0.05263228219388652 -0.030803451571001624 0.20291552668761101 -0.053168364816707052 -0.052985690026632705 -0.012638426556528574 0.20015769350638385 -0.053162563460790506 -0.053162358673899318 0.038190326846858323 0.083111070500435674 0.297955507408045 0.26378774393891974 -0.053160212743828941 0.24672702547159681 0.3312142280426576 0.043145695595159274 0.17532591124393032 -0.053173973186438163 -0.035355706107494576 0.047876081256598313 -0.04972751150521483 -0.053162358673899318 -0.014333370822800982 0.0075051373935518962 -0.032199206295435323 -0.050913084699593464 -0.030574435851647833 0.039426947988417761
leaf_weight=1021.0746669620275 32.072050184011459 93.448017969727516 33.045974005013704 245.08879042044282 56.880607202649117 277.17703371122479 50.408078089356422 115.12690477445722 185.52777837961912 9.2311668209731561 313.8685885630548 138.14260510355234 9.243427310138939 175.73025358095765 51.439978331327438 2.6623198613524428 0.90984156355261703 12.869535371661184 11.567906945943834 58.698049362748861 8.3433484733104688 9.8435156606137735 634.50585076957941 112.8999675437808 207.13007549196482 18.097615901380777 184.61076854914427 133.37637394666672 50.682145249098539 2.6847835332155219
leaf_count=18246 573 1668 541 3543 1015 4950 868 1755 3316 165 5058 2153 146 2454 920 41 15 191 179 1046 143 154 11021 2018 3451 314 3164 2384 882 42
internal_value=-0.00021787 0.0189373 0.116941 0.200386 -0.0190389 0.0173975 0.0514528 0.135358 0.0073074 0.222293 0.0173535 0.0698226 0.0965852 0.228335 -0.047218 0.0100137 -0.0211032 0.0780416 -0.0234637 -0.0139114 0.0712183 0.116733 -0.0423366 -0.0318249 -0.0227003 -0.0355745 -0.0464962 -0.0400485 -0.0205548 -0.01715
internal_weight=4256.39 3023.96 844.524 479.538 2179.43 850.029 572.852 165.535 364.986 430.05 407.317 179.458 147.386 420.819 1232.43 49.4877 33.9558 15.5319 211.357 159.917 32.4396 21.4114 1329.4 376.911 264.011 127.478 952.493 317.987 68.7798 11.0281
internal_count=72416 50490 13138 6950 37352 14299 9349 2623 6188 6162 6726 2872 2299 5997 21926 788 556 232 3680 2760 518 333 23053 6484 4466 2242 16569 5548 1196 185
is_linear=0
shrinkage=0.05


Tree=2
num_leaves=31
num_cat=0
split_feature=1 2 1 2 1 0 2 0 1 0 1 0 1 2 1 0 1 0 0 2 0 0 0 1 3 2 2 0 0 0
split_gain=1410.45 3639.76 2154.71 692.653 700.814 632.161 548.28 533.121 602.243 211.7 129.284 73.2534 57.9041 45.6214 52.7895 46.2399 39.9198 23.4266 104.103 40.4226 25.9201 13.4295 9.2141 11.7669 8.6132 4.19911 3.45892 13.2512 2.49125 7.82948
threshold=140.00219780219859 103.50000000000001 140.77142857143011 257.50000000000006 140.84835164835326 39.529729729728764 2.5000000000000004 39.007207207206427 140.716483516485 39.115315315314497 140.25494505494609 39.15135135135052 139.9032967032974 393.50000000000006 140.89230769230934 38.98018018017941 140.0571428571437 39.115315315314497 39.340540540539642 158.50000000000003 39.268468468467596 39.899099099098002 39.953153153152037 140.89230769230934 1.0000000180025095e-35 828.50000000000011 19.500000000000004 39.899099099098002 39.935135135134026 39.92612612612502
decision_type=2 2 2 2 2 2 2 2 2 2 2 2 2 2 2 2 2 2 2 2 2 2 2 2 2 2 2 2 2 2
left_child=12 2 5 4 7 9 16 -3 -9 -2 -8 -11 26 14 15 -5 -7 -14 19 20 -19 -20 -15 -24 -23 -21 -1 -28 29 -29
right_child=1 3 -4 13 -6 6 10 8 -10 11 -12 -13 17 22 -16 -17 -18 18 21 25 -22 24 23 -25 -26 -27 27 28 -30 -31
leaf_value=-0.052622394685967293 -0.053000212230840726 -0.052530008097061681 -0.052998647959426208 -0.053010602947104836 -0.052786766940463629 -0.017797556868255095 0.15916763834312331 0.051590353914722401 0.22120696145392521 0.33381266757123879 0.2114218605716317 0.083432963390123252 -0.052996602653631292 -0.049336416529591955 -0.052998761512021667 -0.005290274773889889 0.098650198081721333 0.14660375305738998 -0.053009616868589626 -0.024141908460170378 0.041302159636576741 -0.026376123748247046 -0.031270420191000091 -0.050979715287631122 0.029296842464563374 0.11093936136659242 -0.053032423908069219 -0.013355585022112685 -0.016333147238581001 0.10504667116961944
leaf_weight=924.5087136477232 31.187382645905018 100.06376046314836 185.16981200873852 63.901126224547625 231.6302912607789 37.830507680773735 249.68258093297482 370.0216678828001 60.953685589134693 2.965915620326995 225.07348361611366 193.99958968907595 49.078464508056641 621.73592627421021 130.46121232584119 246.90719371289015 9.1374551206827146 13.180910617113115 56.00405565649271 10.256469130516049 10.498725585639475 59.692669659852982 195.94299357384443 123.43276608735323 7.8623566776514044 0.60950587689876634 39.13865677267313 3.7800037488341314 5.4492931850254536 2.2140021957457066
leaf_count=17308 584 1858 3469 1193 4335 625 3029 5663 734 44 2537 2730 920 11279 2444 4079 120 177 1046 174 156 1062 3459 2308 134 11 726 70 101 41
internal_value=-0.000400795 0.0174189 0.0997429 -0.0184669 0.0197852 0.13746 0.167819 0.0514399 0.0755796 0.0680381 0.18394 0.0872032 -0.0468252 -0.0395708 -0.0263058 -0.0151014 0.00485695 -0.0228197 -0.0134523 0.0632786 0.0999167 -0.0349053 -0.0457905 -0.0388877 -0.0198967 -0.0165648 -0.0519258 -0.0391945 0.00813448 0.0303786
internal_weight=4262.37 3080.1 935.047 2145.05 762.669 749.877 521.724 531.039 430.975 228.153 474.756 196.966 1182.27 1382.38 441.27 310.808 46.968 207.183 158.105 34.5456 23.6796 123.559 941.112 319.376 67.555 10.866 975.091 50.582 11.4433 5.99401
internal_count=72416 50490 13138 37352 12590 9669 6311 8255 6397 3358 5566 2774 21926 24762 7716 5272 745 3680 2760 518 333 2242 17046 5767 1196 185 18246 938 212 111
is_linear=0
shrinkage=0.05


Tree=3
num_leaves=31
num_cat=0
split_feature=1 1 3 0 0 1 0 0 1 0 1 1 4 1 0 1 0 0 0 0 0 0 4 0 1 0 3 0 3 0
split_gain=1303.01 2002.73 1855.14 708.634 484.429 407.392 250.247 205.15 133.109 66.881 58.1859 51.3118 46.1442 34.6506 109.461 28.9109 27.5862 116.184 29.3066 25.3834 22.8726 92.6007 26.7652 18.5116 16.3473 13.3708 7.89392 5.53964 3.54314 11.3472
threshold=140.00219780219859 140.82637362637522 1.0000000180025095e-35 39.160360360359526 39.547747747746776 140.0571428571437 40.358558558557299 39.007207207206427 140.60659340659478 40.09729729729613 139.9032967032974 140.11208791208881 9.5000000000000018 140.8703296703313 40.106306306305136 140.59560439560576 40.403603603602328 40.421621621620339 40.133333333332153 39.034234234233445 39.115315315314497 39.340540540539642 7.5000000000000009 39.187387387386543 140.26593406593511 39.899099099098002 1.0000000180025095e-35 39.15135135135052 1.0000000180025095e-35 39.899099099098002
decision_type=2 2 2 2 2 2 2 2 2 2 2 2 2 2 2 2 2 2 2 2 2 2 2 2 2 2 2 2 2 2
left_child=10 2 4 19 7 9 8 -2 -5 -6 28 -7 -9 14 -3 -8 18 -18 -16 -4 -12 22 23 -22 -21 -23 -27 -24 -1 -30
right_child=1 13 3 6 5 11 15 12 -10 -11 20 -13 -14 -15 16 -17 17 -19 -20 24 21 25 27 -25 -26 26 -28 -29 29 -31
leaf_value=-0.052450163262775698 -0.052852996740585023 -0.052188647762317353 -0.049726979300186602 0.051074070578843202 -0.015083260984850678 0.13352162945459303 -0.049171333085775669 0.059274483981468173 0.011780518396574274 0.091154643085407258 -0.052841926375886042 0.17905343636835805 0.1124331441680867 -0.052072509310241183 0.19102429329519477 0.002708062907021096 0.46092647035186501 0.01857952133200827 0.01067159999446495 -0.050036153445836298 -0.00099507269595707371 -0.05285423797793385 -0.053187358470538251 0.12237636437412241 -0.0083576927499702976 -0.02566256464969607 0.027111696497185245 0.024187882022577323 -0.052881312460708298 0.0020176044190755101
leaf_weight=882.12311526015401 36.763394571840763 70.067877054214478 317.77602381259203 781.97068754956126 36.325774900615215 81.225406751036644 89.827953726053238 127.23894585669041 297.53481696918607 25.016704916954041 46.818079054355621 259.75717823207378 60.108725048601627 770.11485273763537 2.6362168081104818 38.305736400187016 2.1383158192038527 4.8543663285672665 15.473910726606844 34.585554827004671 3.7986430339515236 53.425357472151518 2.7457751668989685 15.236103773117064 73.578290808945894 58.320214558392763 8.0657685026526433 14.684054605662821 36.268438536673784 12.711236055940388
leaf_count=17307 720 1353 6184 11183 588 790 1655 1648 4888 321 920 2298 769 15088 33 648 35 79 240 663 63 1046 49 193 1307 1062 134 213 704 235
internal_value=-0.000528559 0.016131 0.0408972 0.0128447 0.114051 0.146867 0.0324023 0.0551386 0.0402439 0.0282427 -0.0464342 0.168207 0.0763299 -0.0485551 -0.0200927 -0.0336619 0.0694947 0.153846 0.0369248 -0.0426058 -0.0221857 -0.0130016 0.0567645 0.0977559 -0.0216844 -0.0342349 -0.0192506 0.0119987 -0.0517234 -0.0386339
internal_weight=4259.5 3125.3 2260.02 1633.58 626.436 402.325 1207.64 224.111 1079.51 61.3425 1134.2 340.983 187.348 865.286 95.1707 128.134 25.1028 6.99268 18.1101 425.94 203.094 156.276 36.4646 19.0347 108.164 119.811 66.386 17.4298 931.103 48.9797
internal_count=72416 50490 33662 26528 7134 3997 18374 3137 16071 909 21926 3088 2417 16828 1740 2303 387 114 273 8154 3680 2760 518 256 1970 2242 1196 262 18246 939
is_linear=0
shrinkage=0.05


Tree=4
num_leaves=31
num_cat=0
split_feature=2 2 0 2 0 0 2 3 0 0 2 0 0 0 2 2 0 0 0 0 2 2 2 0 0 2 0 0 2 4
split_gain=1160.98 2401.6 1849.27 753.425 427.163 112.813 91.7573 71.4302 69.6398 73.0233 51.6783 36.8119 29.4133 26.8522 16.1819 14.214 14.1696 18.4818 22.9122 13.2021 12.5747 11.7976 11.4961 9.81119 16.7346 12.9005 8.19166 9.31155 8.04621 7.56474
threshold=252.50000000000003 2.5000000000000004 39.115315315314497 91.500000000000014 39.53873873873777 39.799999999998938 29.500000000000004 1.0000000180025095e-35 40.358558558557299 40.106306306305136 302.50000000000006 40.385585585584316 39.052252252251456 39.034234234233445 109.50000000000001 115.50000000000001 39.286486486485607 39.691891891890869 39.809009009007944 39.322522522521631 400.50000000000006 -1.0000000180025095e-35 299.50000000000006 39.682882882881863 39.763963963962915 323.50000000000006 39.953153153152037 40.007207207206072 648.50000000000011 9.5000000000000018
decision_type=2 2 2 2 2 2 2 2 2 2 2 2 2 2 2 2 2 2 2 2 2 2 2 2 2 2 2 2 2 2
left_child=1 7 12 4 6 -6 -4 21 9 -5 13 19 -3 -2 -14 -16 -15 22 -19 -9 23 29 -18 -12 25 -25 -22 28 -28 -1
right_child=10 2 3 8 5 -7 -8 11 -10 -11 20 -13 14 16 15 -17 17 18 -20 -21 26 -23 -24 24 -26 -27 27 -29 -30 -31
leaf_value=-0.027332452656027753 -0.052729606087697438 -0.051729511579207237 0.10438821777391911 0.029924722186158673 0.16062780756006459 0.11460688644928292 0.034629277938353152 -0.05273388458112347 -0.034573224729164492 0.065813087331485248 -0.042251602040079279 0.3698077852499746 -0.052702516721895701 0.021181962862391025 0.1727630781438417 0.01453833557453341 -0.051887797500650638 0.048543690681359671 -0.014580482502798121 0.11371408777545022 -0.048886043820985603 -0.047577516557143623 0.099128016979368794 -0.0531605072428529 -0.029755069992344563 0.055457714518936357 -0.053079212329977414 -0.042234745825097758 -0.003109648965811564 0.046172746356066864
leaf_weight=11.520302746444942 38.716288387775421 353.31628432124853 63.934512674808502 464.00124171748757 215.69312206655741 348.0346079878509 179.44241907820106 1.7204366251826275 32.040330376476049 204.0827417075634 152.94029869511724 1.1802845150232313 9.4378346540033835 36.183383151888847 1.5431907996535326 17.69586244598031 32.449322339147329 17.599320109933615 78.470151040703058 3.8735579065978527 583.56697208061814 963.90819965302944 1.3111350424587715 3.686212331056594 125.77591108903289 10.578549377620218 11.016770362854002 251.94699227437377 29.975946590304375 5.027866054326295
leaf_count=198 789 7229 763 7179 2011 3426 2481 35 584 2574 2869 18 194 610 23 316 558 288 1346 58 11287 19362 22 67 2269 187 204 4840 541 88
internal_value=-0.00060147 0.01746 0.0504862 0.0753901 0.108315 0.132215 0.0529548 -0.0457409 0.0374343 0.0408877 -0.038407 0.116061 -0.0477768 -0.0152328 0.000923292 0.0272298 -0.00648813 -0.0141997 -0.00301653 0.0625229 -0.0424638 -0.0468589 -0.0460229 -0.0334962 -0.0239343 0.0273893 -0.0454613 -0.038639 -0.0165389 -0.00499921
internal_weight=4250.67 2876.45 1889.22 1507.23 807.105 563.728 243.377 987.231 700.124 668.084 1374.22 6.77428 381.993 204.73 28.6769 19.2391 166.013 129.83 96.0695 5.59399 1169.49 980.456 33.7605 292.981 140.041 14.2648 876.507 292.94 40.9927 16.5482
internal_count=72416 46539 26780 19018 8681 5437 3244 19759 10337 9753 25877 111 7762 3613 533 339 2824 2214 1634 93 22264 19648 580 5392 2523 254 16872 5585 745 286
is_linear=0
shrinkage=0.05


Tree=5
num_leaves=31
num_cat=0
split_feature=1 2 1 0 1 2 1 1 0 0 2 0 1 0 0 1 0 1 2 2 2 2 3 2 2 1 2 0 0 0
split_gain=1130.29 2313.17 1590.02 576.653 329.18 242.428 212.035 200.577 179.377 167.422 50.8417 44.0695 27.7251 24.0605 92.7845 14.1494 21.0978 97.3135 14.8882 14.0392 13.2616 6.8237 11.1272 10.5751 4.22046 12.2761 3.64318 11.5856 2.32166 5.88198
threshold=139.95824175824251 173.50000000000003 140.82637362637522 39.052252252251456 140.0571428571437 302.50000000000006 140.84835164835326 140.55164835164967 39.592792792791805 39.385585585584671 4.5000000000000009 38.989189189188416 139.9032967032974 39.286486486485607 39.15135135135052 140.89230769230934 39.953153153152037 140.716483516485 438.50000000000006 158.50000000000003 11.500000000000002 3.5000000000000004 1.0000000180025095e-35 5.5000000000000009 171.50000000000003 140.90329670329837 19.500000000000004 39.899099099098002 39.935135135134026 39.92612612612502
decision_type=2 2 2 2 2 2 2 2 2 2 2 2 2 2 2 2 2 2 2 2 2 2 2 2 2 2 2 2 2 2
left_child=12 2 3 -2 10 6 7 11 -6 -9 -5 -3 26 14 -14 16 18 -18 -7 20 -16 22 -15 -23 -4 -26 -1 -28 29 -29
right_child=1 5 24 4 8 15 -8 9 -10 -11 -12 -13 13 21 19 -17 17 -19 -20 -21 -22 23 -24 -25 25 -27 27 28 -30 -31
leaf_value=-0.052144191937881779 -0.051966884711677222 -0.052574740986116343 -0.052673600134163001 -0.0031005086925062985 0.068082590235184523 -0.032065935008050987 -0.052380510943010918 -0.016992130946422431 0.11040173839342858 0.095977938228177961 0.057183216993629153 0.00034379157134225522 -0.052613802632760588 -0.050338358155010955 0.060294752978049759 -0.051685569068114917 -0.048859787960960258 0.019147374011019926 -0.048909153942838013 -0.053493894752829257 0.15795418211239476 0.16580340919819508 0.14219358503761856 -0.020735354594308003 0.15737330229915755 -0.052722231331347139 -0.052623580280945007 -0.014137265409888295 -0.018801775198627604 0.083804334551127624
leaf_weight=806.89964236319065 80.010407354682684 49.972951404750347 280.32917969673872 100.28490073978901 380.61814382299781 192.85042449459434 145.61798436567187 46.803872630000114 731.89255604147911 109.58484219014645 53.705397441983223 184.94682785868645 25.833429049700499 60.003838185220957 6.0434325858950606 272.66649997979403 155.57777626812458 79.472527328878641 410.40702747181058 1.328446976840495 8.1833538413047773 0.91207047924399276 0.75995299220085044 4.5503221526741982 0.93785458803176824 2.6882921233773232 34.352203246206045 3.8486618101596815 5.8033302091062069 2.5477427802979946
leaf_count=17308 1711 1073 5829 1747 4434 3601 2980 825 6856 1331 622 2730 549 1198 69 5799 2906 1434 8205 22 88 15 9 72 10 55 726 70 101 41
internal_value=-0.000660953 0.0133175 0.055541 0.0782154 0.0864396 -0.0284593 -0.000873204 0.0182943 0.0959233 0.0621684 0.0179239 -0.0109132 -0.0483439 -0.0244282 0.00547791 -0.0417915 -0.0385734 -0.025866 -0.0435247 0.101954 0.116469 -0.0431183 -0.0479304 0.0104115 -0.0519803 0.00161618 -0.0513595 -0.0377588 0.00409758 0.0248737
internal_weight=4239.43 3278.37 1630.47 1346.51 1266.5 1647.9 536.926 391.308 1112.51 156.389 153.99 234.92 961.066 107.615 41.3887 1110.97 838.308 235.05 603.257 15.5552 14.2268 66.2262 60.7638 5.46239 283.955 3.62615 853.452 46.5519 12.1997 6.3964
internal_count=72416 52148 21264 15370 13659 30884 8939 5959 11290 2156 2369 3803 20268 2022 728 21945 16146 4340 11806 179 157 1294 1207 87 5894 65 18246 938 212 111
is_linear=0
shrinkage=0.05


Tree=6
num_leaves=31
num_cat=0
split_feature=1 2 1 1 2 1 1 2 1 1 4 4 1 2 2 2 1 1 1 2 1 1 3 2 2 2 2 2 2 2
split_gain=1053.72 2048.12 1544.1 284.507 385.868 285.49 81.8449 77.1151 69.2433 51.7772 37.5823 31.9852 27.8592 19.5156 19.4441 22.482 18.8739 16.3112 14.4529 21.2908 24.5262 12.3816 10.0055 7.95905 16.671 5.22422 3.74164 2.13203 6.31285 1.96767
threshold=139.95824175824251 236.50000000000003 140.84835164835326 140.52967032967163 84.500000000000014 140.04615384615468 140.27692307692413 302.50000000000006 140.80439560439717 140.69450549450696 7.5000000000000009 1.5000000000000002 139.9032967032974 58.500000000000007 11.500000000000002 155.50000000000003 140.28791208791316 140.73846153846304 140.89230769230934 400.50000000000006 140.70549450549598 140.79340659340815 1.0000000180025095e-35 25.500000000000004 23.500000000000004 141.50000000000003 19.500000000000004 1.0000000180025095e-35 5.5000000000000009 103.50000000000001
decision_type=2 2 2 2 2 2 2 2 2 2 2 2 2 2 2 2 2 2 2 2 2 2 2 2 2 2 2 2 2 2
left_child=12 2 3 4 5 -2 -6 8 9 16 11 -5 26 -12 22 23 -3 -11 19 20 -9 -21 27 24 -16 -25 -1 -14 -29 -28
right_child=1 7 -4 10 6 -7 -8 18 -10 17 13 -13 14 -15 15 -17 -18 -19 -20 21 -22 -23 -24 25 -26 -27 29 28 -30 -31
leaf_value=-0.051992266798698034 0.0087826536262964085 -0.033166588902845288 -0.052404452336492574 0.35703501139941513 -0.0039996190238953538 0.088037760369357038 0.038018790856157836 -0.03332396048571399 -0.052652869559360271 0.090562808888888402 0.077805456144755702 0.084815859505262714 -0.043564957125547012 0.12621040225853616 0.048041940772926811 -0.052668517586088343 0.0037707189905361854 0.025278646164041053 -0.051510652009299433 -0.046118622256636738 0.0086883009326453129 -0.028531435842629557 0.10293622305955 0.0022712186630712622 0.24431043784663578 0.090067792008526992 -0.023899816651779968 0.015129330575913896 -0.047928970016898033 -0.045402788106789382
leaf_weight=769.73297318443656 136.17252512276173 51.660129811614752 337.46706428006291 1.0870105177164067 222.30954360216856 686.2472931817174 242.10067460313439 149.32936250418425 73.400658395141363 18.279614012688398 23.749480783939362 147.83121155202389 59.216951336711645 168.98183703050017 5.8394732326269212 9.1250292360782606 104.62296578288078 20.075541917234659 260.2269817404449 489.66564298048615 45.270627103745937 125.78132152929902 1.2601589933037747 9.7200089357793313 1.327979754656553 2.0520751774311057 17.252067111432552 6.5079311840236214 10.173565473407505 27.753949608653784
leaf_count=17308 2199 882 7318 11 3123 6242 3338 2779 1564 262 198 1458 1207 1692 92 192 1622 294 5799 9967 827 2573 14 159 14 23 343 109 212 595
internal_value=-0.00071879 0.0124579 0.044937 0.0651089 0.0543404 0.0749151 0.0179049 -0.035253 -0.0112697 0.0043365 0.105669 0.0868029 -0.048046 0.120246 -0.0238345 0.0118042 -0.00843909 0.0563923 -0.0412594 -0.0379661 -0.0235505 -0.0425243 -0.0367971 0.042867 0.0844064 0.0175757 -0.0511729 -0.0391172 -0.0233281 -0.0371601
internal_weight=4224.22 3304.26 1965.95 1628.48 1286.83 822.42 464.41 1338.31 268.039 194.638 341.65 148.918 919.962 192.731 105.223 28.0646 156.283 38.3552 1070.27 810.047 194.6 615.447 77.1586 18.9395 7.16745 11.7721 814.739 75.8984 16.6815 45.006
internal_count=72416 52148 25579 18261 14902 8441 6461 26569 4624 3060 3359 1469 20268 1890 2022 480 2504 556 21945 16146 3606 12540 1542 288 106 182 18246 1528 321 938
is_linear=0
shrinkage=0.05


Tree=7
num_leaves=31
num_cat=0
split_feature=1 2 1 0 1 2 2 1 0 0 1 1 0 0 1 0 1 2 2 0 2 2 3 2 0 2 0 3 0 2
split_gain=983.417 1821.04 1337.86 598.35 207.458 229.789 75.3214 66.0295 49.6771 46.8146 46.3145 28.0907 22.2257 77.2544 14.7613 21.6576 93.6571 15.311 10.1374 7.7665 6.57827 13.4051 8.81767 3.85288 11.6343 2.31724 2.74913 0.905826 0.900359 1.18931
threshold=139.95824175824251 236.50000000000003 140.84835164835326 39.007207207206427 140.54065934066065 117.50000000000001 302.50000000000006 140.80439560439717 39.034234234233445 39.313513513512625 140.69450549450696 139.9032967032974 39.286486486485607 39.15135135135052 140.89230769230934 39.953153153152037 140.716483516485 438.50000000000006 158.50000000000003 39.169369369368532 3.5000000000000004 4.5000000000000009 1.0000000180025095e-35 19.500000000000004 39.899099099098002 35.500000000000007 39.92612612612502 1.0000000180025095e-35 38.989189189188416 187.50000000000003
decision_type=2 2 2 2 2 2 2 2 2 2 2 2 2 2 2 2 2 2 2 2 2 2 2 2 2 2 2 2 2 2
left_child=11 2 3 28 5 -5 7 8 -3 -6 -10 23 13 -13 15 17 -17 -8 19 -15 22 -22 -14 -1 -25 -26 -27 -23 -2 -30
right_child=1 6 -4 4 9 -7 14 -9 10 -11 -12 12 20 18 -16 16 -18 -19 -20 -21 21 27 -24 24 25 26 -28 -29 29 -31
leaf_value=-0.05184629319237874 -0.052566070932241242 -0.052484780428763068 -0.052266958857580571 0.068416373918128021 0.041942186442710673 0.015740510672041332 -0.030695891025296351 -0.052517315915028576 0.0013616053631764974 0.10805256504230439 0.066219654305189377 -0.052429765439934023 -0.049875855942048242 0.22823466347301383 -0.051340568998517161 -0.048240000525226777 0.019545910084823297 -0.048329831977800393 -0.053142497045497887 0.087666047004561543 0.201840574431042 -0.0069039398572180001 0.10600749260181425 -0.052394721485854251 0.095855725494244481 -0.037905753680034848 0.016262293017192783 -0.054080517979506609 -0.052459935595123963 0.052430718567462321
leaf_weight=734.20217915996909 112.26594305038452 32.38153813034296 321.83173721283674 1005.073154270649 29.408152654767036 260.74831652641296 182.5287714637816 69.996529139578342 127.90854295343161 299.43561665713787 35.072481159120798 24.153906594961882 55.249097034335136 1.0520849600434328 248.33498138934374 143.37863247096539 79.051764536648989 378.05473455041647 1.2105072811245907 14.883932828903196 0.78122483193874259 3.2239215038716793 0.92232608795165916 31.624313857406378 0.67105041444301505 3.3290599882602674 7.9026841148734093 1.486712574958801 0.62541500478982814 0.47587932646274567
leaf_count=17308 2425 720 7318 9626 366 3389 3601 1564 1889 2431 451 549 1198 10 5799 2906 1434 8205 22 147 11 54 9 726 12 64 136 22 14 10
internal_value=-0.000758965 0.0116791 0.0412469 0.058867 0.0667576 0.0575656 -0.0346063 -0.0108491 0.00408016 0.10214 0.0153186 -0.0477403 -0.0231982 0.00518699 -0.0407188 -0.0373501 -0.0241489 -0.0425881 0.0863503 0.0969463 -0.0422099 0.010019 -0.0473163 -0.0509894 -0.0365358 0.00559946 0.000207024 -0.0217932 -0.0521247 -0.00713573
internal_weight=4207.27 3326.57 2029.86 1708.03 1594.67 1265.82 1296.71 265.359 195.363 328.844 162.981 880.693 102.964 41.3004 1031.35 783.014 222.43 560.584 17.1465 15.936 61.6633 5.49186 56.1714 777.729 43.5271 11.9028 11.2317 4.71063 113.367 1.10129
internal_count=72416 52148 25579 18261 15812 13015 26569 4624 3060 2797 2340 20268 2022 728 21945 16146 4340 11806 179 157 1294 87 1207 18246 938 212 200 76 2449 24
is_linear=0
shrinkage=0.05


Tree=8
num_leaves=31
num_cat=0
split_feature=1 2 1 0 1 2 2 1 1 0 1 0 0 0 2 2 1 0 1 2 0 0 4 2 0 4 2 4 0 0
split_gain=919.435 1677.14 1234.4 499.842 137.323 224.756 68.7533 59.1567 56.743 41.3384 40.4217 33.5642 19.9459 68.5631 18.8979 15.2783 15.0597 22.3296 87.8867 15.9225 13.211 6.39423 4.40297 3.95659 11.3435 5.2219 5.83556 2.94731 0.937475 3.20652
threshold=140.00219780219859 239.50000000000003 140.84835164835326 38.989189189188416 140.57362637362772 117.50000000000001 302.50000000000006 140.80439560439717 139.9032967032974 39.034234234233445 140.69450549450696 40.421621621620339 39.115315315314497 39.340540540539642 58.500000000000007 11.500000000000002 140.89230769230934 39.953153153152037 140.716483516485 438.50000000000006 39.899099099098002 40.052252252251101 4.5000000000000009 19.500000000000004 39.899099099098002 6.5000000000000009 107.50000000000001 10.500000000000002 40.358558558557299 40.394594594593322
decision_type=2 2 2 2 2 2 2 2 2 2 2 2 2 2 2 2 2 2 2 2 2 2 2 2 2 2 2 2 2 2
left_child=8 2 3 -2 5 -5 7 9 23 -3 -11 -6 -10 14 15 -14 17 19 -19 -8 -15 -22 -16 -1 -25 26 -26 -27 -18 -30
right_child=1 6 -4 4 11 -7 16 -9 12 10 -12 -13 13 20 22 -17 28 18 -20 -21 21 -23 -24 24 25 27 -28 -29 29 -31
leaf_value=-0.051705809058028546 -0.052444548799093708 -0.052366401372522534 -0.052139588766408208 0.067057941261362858 0.098796662383146119 0.016725093550819171 -0.029799212571494579 -0.052369013466997176 -0.052296083427767683 -0.00043187594650759731 0.059621152377503123 -0.056850109041556275 0.039281846641358698 -0.052525029213570246 0.11225686404672722 0.12180555186905702 -0.052229643940605891 -0.047813538516204575 0.01824395591737182 -0.048245775098297625 0.0075925206788570862 -0.027609145746394188 -0.0013861319793415717 -0.052272497144828234 0.12362602644520158 -0.026551175249403848 -0.015819122067361312 0.051849721162740441 -0.0097356974290591387 -0.052231957851413248
leaf_weight=700.24446364119649 99.462338708341122 28.010561622679234 309.59756718575954 1079.6603654399514 252.1902896091342 279.13509691506624 173.88631034642458 63.499105710536242 38.55173759162426 120.06292376667261 36.551785036921501 3.5119003430008879 13.764119133353235 47.1846345923841 0.89776524156332271 9.4657902866601926 213.00608125329018 134.66822134703398 80.421915031969547 357.47211687639356 18.047601543366909 45.23221480101347 16.835582554340363 30.150538932532072 1.6937352232635015 7.4965202957391721 1.34689599648118 1.4269088245928285 5.883278094232085 18.080060996115208
leaf_count=17308 2245 651 7378 9190 2010 3560 3519 1495 920 1772 446 35 174 1046 14 85 5213 2853 1434 8103 314 882 245 726 28 133 26 25 144 442
internal_value=-0.000793031 0.0117459 0.0397447 0.056342 0.0630439 0.0567181 -0.0342592 -0.0107397 -0.0445706 0.00357803 0.0135837 0.096659 -0.0201873 -0.0120127 0.0432365 0.0729088 -0.0401933 -0.0367071 -0.0231147 -0.0422092 -0.0325007 -0.0175695 0.00436714 -0.0508106 -0.0359262 0.00526798 0.0618566 -0.0140144 -0.0511748 -0.0417986
internal_weight=4187.44 3255.1 2023.56 1713.96 1614.5 1358.8 1231.54 248.124 932.339 184.625 156.615 255.702 189.979 151.428 40.9633 23.2299 983.418 746.449 215.09 531.358 110.464 63.2798 17.7333 742.359 42.1146 11.9641 3.04063 8.92343 236.969 23.9633
internal_count=72416 50490 24418 17040 14795 12750 26072 4364 21926 2869 2218 2045 3680 2760 518 259 21708 15909 4287 11622 2242 1196 259 18246 938 212 54 158 5799 586
is_linear=0
shrinkage=0.05


Tree=9
num_leaves=31
num_cat=0
split_feature=1 1 0 3 1 0 0 0 0 1 0 1 0 0 3 0 1 0 0 1 0 1 0 4 4 0 3 0 4 4
split_gain=860.045 1128.06 775.84 348.909 218.02 131.769 131.633 80.0216 31.679 28.1133 27.0444 23.7142 20.5783 62.1852 19.3542 17.0256 61.6326 36.4253 30.5302 11.285 8.15404 7.93849 16.3071 5.97407 11.0155 7.45927 4.03773 9.83822 4.50452 3.0629
threshold=139.95824175824251 140.84835164835326 39.115315315314497 1.0000000180025095e-35 140.04615384615468 40.412612612611333 39.583783783782799 39.799999999998938 39.412612612611689 139.9032967032974 38.98018018017941 140.82637362637522 39.286486486485607 39.15135135135052 1.0000000180025095e-35 40.358558558557299 140.8703296703313 40.421621621620339 40.403603603602328 140.26593406593511 39.097297297296485 140.89230769230934 40.421621621620339 7.5000000000000009 5.5000000000000009 39.178378378377538 1.0000000180025095e-35 39.899099099098002 4.5000000000000009 10.500000000000002
decision_type=2 2 2 2 2 2 2 2 2 2 2 2 2 2 2 2 2 2 2 2 2 2 2 2 2 2 2 2 2 2
left_child=9 2 10 4 8 7 -6 -5 -4 26 -2 -7 13 -11 20 -3 17 18 -17 -16 -12 22 -18 24 -15 -25 -1 -28 -29 -14
right_child=1 15 3 5 6 11 -8 -9 -10 12 14 -13 29 23 19 16 21 -19 -20 -21 -22 -23 -24 25 -26 -27 27 28 -30 -31
leaf_value=-0.051569851050972539 -0.050753382691058994 -0.051844892148036774 0.058766918893004887 0.035222465741549629 0.040749299266820416 -0.050027449312519484 0.084557474179803208 0.011015785804702596 -0.0099713770065639525 -0.052209302444904272 0.023585343370047824 0.09105232787590696 -0.045717092499743393 0.0022965993947325655 -0.05220916848114291 0.054484348905450064 0.16683387723661125 -0.029646931953956113 0.35788106119243912 -0.01587453323963291 0.13781665384099478 -0.046464926603677022 -0.052951000021555186 0.15344432121919702 0.12169807438121516 0.017631547017847037 -0.052158580687546134 0.14815080540116243 -0.005396452551337823 -0.010780507349364078
leaf_weight=667.63975289463997 268.51002578437328 587.05091755464673 19.693383775651455 700.16306232661009 258.85866909101605 72.817650713026524 507.93904277309775 666.31706295907497 112.58925338461995 22.0756223089993 6.3920812197029573 3.105692356824874 50.720316968858242 2.4917298331856754 31.150628682225943 1.3895308375358575 1.3657260686159127 2.0747518092393875 2.0561535954475403 68.059693709015846 2.0675222128629684 43.940686050802469 2.2090566083788872 1.1895174607634533 8.5934582352638227 6.7370263189077377 27.8838255032897 0.49654384702443977 12.548890702426432 7.1590196490287772
leaf_count=17307 6550 14698 244 9375 2298 1545 3113 8933 1703 549 88 48 1136 23 771 23 27 32 23 1500 24 1111 42 14 72 70 704 9 226 158
internal_value=-0.000819905 0.0103221 0.0243869 0.035095 0.059542 0.0198567 0.0697685 0.0234189 0.000261936 -0.0471487 -0.042264 -0.0442565 -0.022186 0.00487464 -0.0210929 -0.0493939 -0.0222635 0.135869 0.235531 -0.0272831 0.0515034 -0.0406357 0.0310166 0.0711581 0.094859 0.0380126 -0.0506353 -0.0353912 0.000447963 -0.0413958
internal_weight=4165.29 3357.75 2717.66 2341.48 899.08 1442.4 766.798 1366.48 132.283 807.536 376.18 75.9233 98.9667 41.0874 107.67 640.087 53.0359 5.52044 3.44568 99.2103 8.4596 47.5155 3.57478 19.0117 11.0852 7.92654 708.569 40.9293 13.0454 57.8793
internal_count=72416 52148 36192 27259 7358 19901 5411 18308 1947 20268 8933 1593 2022 728 2383 15956 1258 78 46 2271 112 1180 69 179 95 84 18246 939 235 1294
is_linear=0
shrinkage=0.05


Tree=10
num_leaves=31
num_cat=0
split_feature=1 2 1 0 2 0 0 2 1 1 0 1 0 0 0 1 0 1 2 2 2 2 3 2 2 0 0 0 2 1
split_gain=805.107 1371.5 939.191 402.316 151.751 107.287 89.3046 65.924 52.508 42.6576 70.8301 28.1901 19.5727 19.4902 55.3826 14.6252 21.2753 82.9607 15.4674 7.25404 6.51649 10.4441 8.38148 4.91314 4.17821 10.8613 2.27648 4.56097 1.467 1.43355
threshold=139.95824175824251 239.50000000000003 140.84835164835326 39.007207207206427 2.5000000000000004 39.592792792791805 40.385585585584316 302.50000000000006 140.78241758241913 140.69450549450696 39.700900900899875 139.9032967032974 39.034234234233445 39.286486486485607 39.15135135135052 140.89230769230934 39.953153153152037 140.716483516485 438.50000000000006 158.50000000000003 3.5000000000000004 4.5000000000000009 1.0000000180025095e-35 11.500000000000002 19.500000000000004 39.899099099098002 39.935135135134026 39.92612612612502 60.500000000000007 140.80439560439717
decision_type=2 2 2 2 2 2 2 2 2 2 2 2 2 2 2 2 2 2 2 2 2 2 2 2 2 2 2 2 2 2
left_child=11 2 3 -2 6 -6 -5 8 9 12 -11 24 -3 14 -13 16 18 -18 -9 23 22 -22 -15 -16 -1 -26 27 -27 -28 -10
right_child=1 7 -4 4 5 -7 -8 15 29 10 -12 13 -14 20 19 -17 17 -19 -20 -21 21 -23 -24 -25 25 26 28 -29 -30 -31
leaf_value=-0.051440006704982846 -0.051697192475609437 -0.052092492391357707 -0.051896911057917508 -0.0085509807555181599 0.037696310708546149 0.064340264352324844 0.38082674418351986 -0.029315242482390608 -0.024263117227255274 -0.037143595158802299 0.10283445508506894 -0.052097028821403581 -0.0015376816782438408 -0.04927706544243781 0.039547267559583835 -0.050853687310958053 -0.047513746110105004 0.016678784225199559 -0.047655483290189468 -0.053221066985115965 0.16662638192392701 -0.01984639505056577 0.10037075422234605 0.092094817000910503 -0.052047358604218691 -0.011333464352866968 -0.053254512228121879 0.074343564399312501 0.00030127737017124042 -0.052151041352914956
leaf_weight=636.86908061802387 99.891968712210655 22.633356783539057 281.54034209623933 115.75926156714559 573.92430305108428 1105.7657292708755 1.4915286377072323 172.87142184004188 5.0066223368048659 14.541557688266037 23.875337235629559 21.043093401938677 124.23845078796148 49.434576604515314 7.2432449832558694 215.68334059417248 130.2412839345634 82.034164782613516 343.16887242719531 1.2363085635006417 0.90259223431348701 4.4679546616971493 0.95371570438146491 11.52802864462137 27.398672085255384 3.6055812910199148 1.9430183842778204 2.7290855534374714 3.7397206053137779 57.890843465924263
leaf_count=17308 2485 588 7378 1770 5545 8565 20 3601 81 214 253 549 1809 1198 69 5799 2906 1434 8205 22 11 76 9 88 726 70 34 41 67 1495
internal_value=-0.000830632 0.00972466 0.0333198 0.0459683 0.0513975 0.0552364 -0.00359777 -0.0333887 -0.010458 0.00294143 0.04985 -0.0468499 -0.00932832 -0.0216146 0.00453201 -0.0394174 -0.0360306 -0.0227064 -0.0415116 0.0640919 -0.0408642 0.0114928 -0.0464446 0.0718184 -0.0504623 -0.0346648 0.004966 0.0255777 -0.0180103 -0.0499312
internal_weight=4143.65 3370.56 2178.37 1896.83 1796.94 1679.69 117.251 1192.19 248.186 185.289 38.4169 773.095 146.872 96.8095 41.0507 943.999 728.316 212.275 516.04 20.0076 55.7588 5.37055 50.3883 18.7713 676.285 39.4161 12.0174 6.33467 5.68274 62.8975
internal_count=72416 52148 25763 18385 15900 14110 1790 26385 4440 2864 467 20268 2397 2022 728 21945 16146 4340 11806 179 1294 87 1207 157 18246 938 212 111 101 1576
is_linear=0
shrinkage=0.05


Tree=11
num_leaves=31
num_cat=0
split_feature=2 2 0 2 0 0 3 0 4 2 2 0 0 2 0 0 0 2 2 2 0 4 4 2 0 4 0 0 0 0
split_gain=705.839 1157.4 786.064 282.399 165.203 84.0679 55.1345 44.5385 34.0524 29.3344 22.8178 15.8265 17.434 16.0102 11.2726 9.23301 10.1448 8.90801 7.80145 15.8029 7.36826 6.87614 6.68158 5.25762 5.07016 11.6537 7.93451 4.95339 13.082 4.39986
threshold=281.50000000000006 2.5000000000000004 39.052252252251456 103.50000000000001 39.583783783782799 39.799999999998938 1.0000000180025095e-35 40.412612612611333 10.500000000000002 29.500000000000004 400.50000000000006 38.98018018017941 38.989189189188416 370.50000000000006 39.322522522521631 39.953153153152037 40.007207207206072 -1.0000000180025095e-35 648.50000000000011 665.50000000000011 39.98918918918806 9.5000000000000018 9.5000000000000018 1.0000000180025095e-35 40.025225225224084 6.5000000000000009 40.403603603602328 40.358558558557299 40.421621621620339 40.439639639638351
decision_type=2 2 2 2 2 2 2 2 2 2 2 2 2 2 2 2 2 2 2 2 2 2 2 2 2 2 2 2 2 2
left_child=1 6 -3 4 9 -6 17 8 -5 -4 11 -2 13 -13 -8 -12 18 20 -17 -20 21 -1 29 -19 25 -16 -26 -18 -29 -14
right_child=10 2 3 7 5 -7 14 -9 -10 -11 15 12 22 -15 24 16 27 23 19 -21 -22 -23 -24 -25 26 -27 -28 28 -30 -31
leaf_value=-0.0077952843736191005 -0.052070027999839411 -0.050232019881096816 0.050291351182289196 0.021765086335448505 0.089852886448934258 0.055669257788052977 -0.05189970894870493 -0.053467359705945142 -0.010111392550721618 0.021278168154442278 -0.046904971175693352 0.0066917794018372806 -0.015336859460431441 0.33778482836059098 0.21937237272901131 -0.052264140362696623 -0.046312766447343813 -0.045955491220760675 0.24108379665729152 -0.0029107356248730455 -0.038998491197260954 0.088409589831881324 -0.034338677476177262 -0.016977904562591628 0.20165085408055919 0.0082616021551496222 0.03778524523128983 -0.007883098193711132 -0.045993368710007344 -0.052766724849165739
leaf_weight=5.456302225589754 50.233575325459242 282.71133543550968 119.31995223835111 720.5925624370575 270.58982134237885 536.40636147931218 1.2342297099530677 22.361158926039934 94.803929138928652 322.85546077042818 445.49461213499308 0.84867190197110065 171.85907503217459 0.64081790298223495 0.9066918678581718 8.2702433392405492 107.59890705347061 713.38057326897979 0.68097004294395702 26.039937224239111 9.8877488896250707 2.8158633708953857 80.987827520817518 16.004443779587746 2.5157962664961819 2.3428807035088539 1.0458171516656873 37.811779197305441 55.672916978597641 8.2271702848374826
leaf_count=92 1319 7733 967 9606 1683 3752 35 454 1274 3510 11287 21 3585 15 11 204 2610 19084 15 526 149 45 1689 278 26 30 9 849 1381 177
internal_value=-0.000846236 0.010828 0.02801 0.0386092 0.0536717 0.0671312 -0.0430572 0.0161497 0.0180589 0.0291073 -0.0375375 -0.0263571 -0.0214378 0.149137 0.0871343 -0.0426686 -0.0346743 -0.0444584 -0.0098271 0.00330735 -0.00986741 0.0249531 -0.0224109 -0.0453197 0.112328 0.0671655 0.153534 -0.038998 -0.0305789 -0.0170468
internal_weight=4119.6 3125.23 2369.64 2086.93 1249.17 806.996 755.59 837.758 815.396 442.175 994.367 312.797 262.564 1.48949 8.04542 681.569 236.075 747.545 34.9912 26.7209 18.1599 8.27217 261.074 729.385 6.81119 3.24957 3.56161 201.084 93.4847 180.086
internal_count=72416 48738 28979 21246 9912 5435 19759 11334 10880 4477 23678 6806 5487 36 111 16872 5585 19648 745 541 286 137 5451 19362 76 41 35 4840 2230 3762
is_linear=0
shrinkage=0.05


Tree=12
num_leaves=31
num_cat=0
split_feature=2 2 0 2 0 3 0 0 4 2 2 0 0 0 0 0 2 2 2 2 0 4 4 2 0 0 0 2 3 0
split_gain=654.191 1054.92 705.703 238.992 139.353 49.8713 41.003 31.8334 30.0107 26.3969 22.7809 15.7091 14.042 9.3679 9.88255 9.0504 9.00692 8.82744 7.43769 15.2848 6.78164 6.45289 5.64544 5.26772 4.97863 12.7837 4.43433 4.74414 5.54087 4.29733
threshold=281.50000000000006 2.5000000000000004 39.052252252251456 103.50000000000001 39.511711711710753 1.0000000180025095e-35 40.412612612611333 39.799999999998938 10.500000000000002 29.500000000000004 400.50000000000006 38.98018018017941 38.989189189188416 39.953153153152037 40.007207207206072 39.322522522521631 370.50000000000006 -1.0000000180025095e-35 648.50000000000011 660.50000000000011 39.98918918918806 9.5000000000000018 9.5000000000000018 1.0000000180025095e-35 40.358558558557299 40.421621621620339 39.007207207206427 171.50000000000003 1.0000000180025095e-35 40.439639639638351
decision_type=2 2 2 2 2 2 2 2 2 2 2 2 2 2 2 2 2 2 2 2 2 2 2 2 2 2 2 2 2 2
left_child=1 5 26 4 9 17 8 -6 -5 -4 11 -2 16 -12 18 -7 -13 20 -15 -20 22 29 -1 -19 -16 -26 -3 -28 -29 -14
right_child=10 2 3 6 7 15 -8 -9 -10 -11 13 12 21 14 24 -17 -18 23 19 -21 -22 -23 -24 -25 25 -27 27 28 -30 -31
leaf_value=-0.0074570362570620958 -0.05196501837713835 -0.051673545703889129 0.046738119337658014 0.020316701728106137 0.069533793301832333 -0.051803629541305518 -0.053293831812345954 0.051120386497620712 -0.009685261704572342 0.013359515974743962 -0.046573018764238999 0.0063173792991622971 -0.014776176899782762 -0.052149060344971757 -0.045946008137193135 0.097474028781660144 0.23510928878442983 -0.045589495989951573 0.23464409198763836 -0.0030588503314163662 -0.038330222294638894 -0.033665537750988274 0.077689843215824742 -0.016367149833155233 -0.0075433185112107302 -0.045621116068685102 -0.051987209338594409 0.095072899287004062 -0.016123088393170022 -0.052625630646125347
leaf_weight=5.4195693880319613 47.877777121961117 253.60393842682242 77.472519744187593 733.03315722569823 407.04472259059548 1.1761581152677516 21.338101737201214 554.44019918143749 94.046138998121023 251.57604836672544 426.71239188313484 0.85388192161917575 169.52202418074012 7.8838210105895987 103.1477864459157 7.4265912286937237 0.86687624081969261 683.89996960014105 0.69426030665636318 26.121750645339489 9.5653671622276288 78.539525672793388 3.0379280261695385 15.777478907257317 37.546156950294971 53.379010941833258 8.063824053853752 1.3385967686772327 6.8702279850840569 7.8463785052299491
leaf_count=92 1319 7322 656 9606 2566 35 454 3752 1274 2938 11287 21 3585 204 2610 76 15 19084 12 529 149 1689 45 278 849 1381 229 19 163 177
internal_value=-0.0008493 0.0102136 0.0261396 0.0357527 0.049304 -0.0426061 0.0151397 0.0589157 0.0169052 0.0212183 -0.0369407 -0.0256644 -0.0207767 -0.0421963 -0.0340329 0.077065 0.121577 -0.0440406 -0.00945631 0.00309522 -0.00949019 -0.0217339 0.0231277 -0.0449305 -0.0384271 -0.0298975 -0.05005 -0.0247483 0.00200942 -0.0164506
internal_weight=4096.12 3135.13 2408.83 2138.95 1290.53 726.303 848.417 961.485 827.079 329.049 960.992 305.506 257.629 655.485 228.773 8.60275 1.72076 717.7 34.6998 26.816 18.0229 255.908 8.4575 699.677 194.073 90.9252 269.877 16.2726 8.20882 177.368
internal_count=72416 48738 28979 21246 9912 19759 11334 6318 10880 3594 23678 6806 5487 16872 5585 111 36 19648 745 541 286 5451 137 19362 4840 2230 7733 411 182 3762
is_linear=0
shrinkage=0.05


Tree=13
num_leaves=31
num_cat=0
split_feature=1 2 1 0 1 1 2 1 1 0 2 0 0 1 1 2 0 4 2 2 4 1 2 1 1 2 1 2 1 1
split_gain=673.917 983.526 708.792 307.895 181.822 95.5297 59.6908 60.0972 51.7029 140.49 34.6415 22.7507 10.6974 14.6561 43.8502 4.28662 9.35024 4.01186 3.68198 8.58666 2.53007 7.4384 2.49297 3.69119 2.43986 2.17302 5.96503 1.20497 1.05552 0.966912
threshold=139.9032967032974 239.50000000000003 140.84835164835326 39.007207207206427 140.03516483516566 140.57362637362772 393.50000000000006 140.83736263736424 140.69450549450696 39.700900900899875 3.5000000000000004 38.98018018017941 39.953153153152037 140.68351648351793 140.8703296703313 19.500000000000004 39.899099099098002 6.5000000000000009 107.50000000000001 74.500000000000014 10.500000000000002 139.78241758241816 488.50000000000006 140.72747252747402 139.85934065934131 390.50000000000006 140.90329670329837 239.50000000000003 139.99120879120957 139.87032967033034
decision_type=2 2 2 2 2 2 2 2 2 2 2 2 2 2 2 2 2 2 2 2 2 2 2 2 2 2 2 2 2 2
left_child=15 2 3 -2 10 -6 7 8 11 -10 -5 -3 22 -14 -15 29 -17 18 19 -18 24 -22 23 -8 -19 -9 -27 -20 -24 -1
right_child=1 6 -4 4 5 -7 12 25 9 -11 -12 -13 13 14 -16 16 17 20 27 -21 21 -23 28 -25 -26 26 -28 -29 -30 -31
leaf_value=-0.051631976090083423 -0.051359909586024058 -0.051844383886788227 -0.051759148402014399 -0.020780501303821801 0.039361384304859019 0.070244763908475907 -0.033129710276794344 -0.050589804071258793 -0.044768789093748346 0.091302574677616585 0.022544069420918907 -0.011385567910168837 -0.049714811008211977 0.0080871263821103139 -0.046647162923298013 -0.051806983470340531 -0.0085447707493772253 -0.044583067947319935 -0.053284733184307112 0.19406755084751171 0.16578555078928858 -0.053733851246809274 -0.019277407631694859 -0.051909027539721909 0.018767040168622875 0.15674761866651848 -0.051836597367092653 0.043205423467629234 -0.048784854384694494 -0.042949607605699269
leaf_weight=524.03872563689947 97.85863833874464 41.175625689327717 263.13978176563978 130.98627293482423 1516.0680824331939 299.93445938825607 73.550369933247566 108.40002898871899 34.988087579607964 41.43240762129426 71.228728424757719 222.52435460314155 81.802689950913191 63.612874951213598 86.148286409676075 24.237235512584448 1.0903299525380132 5.7113424949347955 0.85307327657937981 1.0048266276717184 0.68358211591839768 0.88615725561976433 3.0617790929973117 40.616511281579733 2.0710121802985668 0.47520874813198943 1.2297753430902956 0.52126460522413254 298.61513445153832 34.156477626413107
leaf_count=16251 2825 1202 7378 2698 11963 2045 1887 3024 663 499 754 3828 2094 1190 2520 726 15 100 15 13 11 14 87 1162 33 8 36 11 8307 1057
internal_value=-0.000848143 0.00756817 0.0256308 0.0352545 0.0394542 0.0444621 -0.0315842 -0.0176022 -0.00720856 0.0290041 -0.00551974 -0.017703 -0.0413077 -0.0326948 -0.0233981 -0.0500074 -0.0335401 0.000990696 0.0469098 0.0886271 -0.0160446 0.0418613 -0.0461038 -0.0398107 -0.0277246 -0.0497089 0.00629945 -0.0166875 -0.0484854 -0.0511007
internal_weight=4072.1 3476.85 2379.22 2116.08 2018.22 1816 1097.63 450.225 340.12 76.4205 202.215 263.7 647.408 231.564 149.761 595.254 37.0588 12.8216 3.46949 2.09516 9.35209 1.56974 415.844 114.167 7.78235 110.105 1.70498 1.37434 301.677 558.195
internal_count=72416 54170 27663 20285 17460 14008 26507 9260 6192 1162 3452 5030 17247 5804 3710 18246 938 212 54 28 158 25 11443 3049 133 3068 44 26 8394 17308
is_linear=0
shrinkage=0.05


Tree=14
num_leaves=31
num_cat=0
split_feature=1 2 1 0 1 1 2 1 1 0 0 0 0 1 1 2 0 4 2 1 0 4 2 1 1 1 0 0 4 0
split_gain=634.444 891.864 640.392 275.139 155.796 80.6949 58.5281 58.15 46.3755 119.501 31.5762 22.2037 10.8043 14.5914 41.995 4.38346 9.11002 3.59286 2.55742 3.75474 2.51046 4.19592 2.20593 6.57362 1.06376 1.00274 3.90318 100.806 0.890828 0.67561
threshold=139.9032967032974 239.50000000000003 140.84835164835326 39.007207207206427 140.03516483516566 140.54065934066065 393.50000000000006 140.83736263736424 140.69450549450696 39.700900900899875 39.394594594593677 38.98018018017941 39.953153153152037 140.68351648351793 140.8703296703313 19.500000000000004 39.899099099098002 4.5000000000000009 488.50000000000006 140.72747252747402 39.935135135134026 6.5000000000000009 382.50000000000006 140.90329670329837 139.99120879120957 139.87032967033034 39.142342342341514 39.115315315314497 7.5000000000000009 38.989189189188416
decision_type=2 2 2 2 2 2 2 2 2 2 2 2 2 2 2 2 2 2 2 2 2 2 2 2 2 2 2 2 2 2
left_child=15 2 3 29 10 -6 7 8 11 -10 -5 -3 18 -14 -15 25 -17 -18 19 -8 21 -19 -9 -24 -20 -1 27 -27 -22 -2
right_child=1 6 -4 4 5 -7 12 22 9 -11 -12 -13 13 14 -16 16 17 20 24 -21 28 -23 23 -25 -26 26 -28 -29 -30 -31
leaf_value=-0.051540342427413378 -0.051775463550796576 -0.051751209582130323 -0.051651582321399249 0.026504435753146833 0.035355359454221517 0.060041396057930178 -0.032471262740996286 -0.051362736281124255 -0.044280738606308184 0.080595516511651616 -0.017636390705731628 -0.010926355313038072 -0.049495901282073138 0.0076268998956522949 -0.046330567954079811 -0.051715818057577273 0.12508361157551293 0.080258840017938191 -0.018652134864368574 -0.051812563472399542 -0.053679538670050292 -0.0090790076194176821 0.062094165036806773 -0.05174634927142438 -0.048544298106891162 -0.051650748348139056 -0.05166245260527913 0.83005052074355246 -0.013469756005404281 -0.017350066566190203
leaf_weight=499.34495091065764 91.848414355888963 39.236204562708735 250.81443087384105 56.258914571255445 1437.4840036854148 430.08830629661679 71.346201475709677 98.694835120812058 33.639313075691462 44.503586169332266 144.77974354475737 220.33975424990058 78.148652106523514 64.066841222345829 82.492744816467166 23.094787292182446 0.55642718449234863 1.8567486591637115 3.007601521909236 38.7057342864573 2.1741595342755318 4.498764805495739 1.7330869734287251 4.7263258341699839 285.42385007627308 6.8624704740941516 25.610140219330788 0.34025144577026356 3.7588275745511055 1.4476717896759499
leaf_count=16251 2783 1202 7378 685 11175 2833 1887 2891 663 499 2767 3828 2094 1190 2520 726 8 28 87 1162 35 77 32 145 8307 222 824 11 64 42
internal_value=-0.000852441 0.00714781 0.0239762 0.0327502 0.0365383 0.0410404 -0.0309384 -0.017041 -0.00693126 0.0268382 -0.00528397 -0.0170972 -0.0408145 -0.0320475 -0.0227437 -0.0498426 -0.0329421 0.000812595 -0.0457584 -0.0392737 -0.00481444 0.0170208 -0.0495101 -0.0212025 -0.0482326 -0.050984 -0.0425171 -0.00999981 -0.0282047 -0.0512413
internal_weight=4046.88 3478.79 2412.72 2161.91 2068.61 1867.57 1066.06 442.873 337.719 78.1429 201.039 259.576 623.192 224.708 146.56 568.098 35.9397 12.8449 398.483 110.052 12.2885 6.35551 105.154 6.45941 288.431 532.158 32.8129 7.20272 5.93299 93.2961
internal_count=72416 54170 27663 20285 17460 14008 26507 9260 6192 1162 3452 5030 17247 5804 3710 18246 938 212 11443 3049 204 105 3068 177 8394 17308 1057 233 99 2825
is_linear=0
shrinkage=0.05


Tree=15
num_leaves=31
num_cat=0
split_feature=1 2 1 1 2 1 2 1 1 1 1 2 2 3 2 4 1 1 2 2 2 2 4 1 1 1 1 4 2 1
split_gain=597.719 809.883 592.827 156.444 102.611 137.836 44.9419 47.7628 29.5206 22.592 17.1135 11.6808 10.561 31.3882 11.3143 6.19963 6.48919 14.5262 4.48989 1.92962 3.46536 2.30688 1.8288 1.53505 2.34101 1.02752 1.30025 1.90945 1.03429 0.495146
threshold=139.9032967032974 252.50000000000003 140.84835164835326 140.02417582417664 117.50000000000001 140.57362637362772 400.50000000000006 140.89230769230934 140.52967032967163 140.69450549450696 140.74945054945206 305.50000000000006 3.5000000000000004 1.0000000180025095e-35 58.500000000000007 8.5000000000000018 140.8703296703313 140.79340659340815 19.500000000000004 252.50000000000003 239.50000000000003 21.500000000000004 4.5000000000000009 140.62857142857283 140.8703296703313 139.87032967033034 139.88131868131936 8.5000000000000018 1.0000000180025095e-35 140.85934065934228
decision_type=2 2 2 2 2 2 2 2 2 2 2 2 2 2 2 2 2 2 2 2 2 2 2 2 2 2 2 2 2 2
left_child=18 2 3 12 8 -6 7 9 -5 11 -11 -3 13 -2 -14 16 17 -8 25 20 21 -20 -23 -17 -25 -1 27 28 -27 -4
right_child=1 6 29 4 5 -7 15 -9 -10 10 -12 -13 14 -15 -16 23 -18 -19 19 -21 -22 22 -24 24 -26 26 -28 -29 -30 -31
leaf_value=-0.05145297800213821 -0.027172409214320511 -0.0060344096583565482 -0.026707478308402966 0.038082846257813392 -0.0015028921069719407 0.046950781697076338 -0.037906979069229213 -0.051694911060481179 0.057032939461217597 0.037359141823530909 -0.0078876337757471 -0.028809312741649214 0.015559213628649036 0.10694897624031441 -0.023029376750834135 -0.051380067254058776 -0.048493302905881712 -0.0066743534120403143 0.10583471483054248 -0.051698014051888043 0.080972130217097996 0.030147489189034517 -0.033230036892576774 -0.038425104083035816 -0.050850962622598916 0.0018301389025252666 -0.04924528099239632 -0.051637108219875785 -0.051576894589299808 -0.051760755060070211
leaf_weight=475.777747804299 112.94394899532199 107.58063621260226 1.9881150294095267 1184.3455373421311 383.49115419574082 237.77882024273276 198.97860198840499 86.585372805595398 248.66465813294053 37.81264753639698 46.71737509034574 118.10642391443253 51.795856444165111 4.5375043898820868 29.996121531352401 98.949585625901818 79.655545052140951 45.796947920694947 0.31604583561421051 9.388880040496586 0.74630155973136325 1.1969424299895788 23.211736973375082 94.036682553589344 63.500500848516822 4.6655707973986882 21.24275410361588 4.6238336805254221 1.1251592971384523 245.86162823438644
leaf_count=16251 2514 1963 61 8607 5025 1952 5590 2738 1477 543 862 2701 769 40 579 2876 2623 1140 9 304 16 28 581 2451 2086 151 714 154 38 7573
internal_value=-0.000854734 0.00675574 0.0218378 0.0299102 0.0340133 0.0170418 -0.0318304 -0.0188598 0.0413712 -0.00969512 0.0123525 -0.017953 -0.0123878 -0.0219922 0.00140736 -0.04069 -0.0360974 -0.0320634 -0.0496801 -0.0323222 -0.0251801 -0.0283843 -0.0301222 -0.0464993 -0.0434338 -0.0508726 -0.0421501 -0.0276781 -0.00854704 -0.0515598
internal_weight=4021.42 3479.12 2501.4 2253.55 2054.28 621.27 977.72 396.802 1433.01 310.217 84.53 225.687 199.273 117.481 81.792 580.918 324.431 244.776 542.295 34.8599 25.471 24.7247 24.4087 256.487 157.537 507.435 31.6573 10.4146 5.79073 247.85
internal_count=72416 54170 28597 20963 17061 6977 25573 8807 10084 6069 1405 4664 3902 2554 1348 16766 9353 6730 18246 938 634 618 609 7413 4537 17308 1057 343 189 7634
is_linear=0
shrinkage=0.05


Tree=16
num_leaves=31
num_cat=0
split_feature=1 2 1 0 2 1 2 1 0 1 0 0 1 1 2 0 4 2 2 2 1 4 1 1 2 0 1 1 0 0
split_gain=563.229 737.846 528.443 238.411 123.353 61.5832 55.7826 54.3087 42.0281 37.72 21.2313 11.3478 15.0057 40.6912 4.61551 9.09474 3.05241 3.15595 5.89284 2.72946 3.97394 2.35732 6.10945 2.37742 2.30601 6.46516 1.11728 1.06562 3.95586 45.3113
threshold=139.9032967032974 239.50000000000003 140.84835164835326 39.007207207206427 2.5000000000000004 140.57362637362772 393.50000000000006 140.83736263736424 38.98018018017941 140.70549450549598 39.403603603602683 39.953153153152037 140.68351648351793 140.8703296703313 19.500000000000004 39.899099099098002 6.5000000000000009 107.50000000000001 74.500000000000014 488.50000000000006 140.72747252747402 10.500000000000002 139.78241758241816 139.85934065934131 382.50000000000006 40.367567567566304 139.99120879120957 139.87032967033034 39.142342342341514 39.115315315314497
decision_type=2 2 2 2 2 2 2 2 2 2 2 2 2 2 2 2 2 2 2 2 2 2 2 2 2 2 2 2 2 2
left_child=14 2 3 -2 10 -6 7 8 -3 -10 -5 19 -13 -14 27 -16 17 18 -17 20 -8 23 -23 -18 -9 -26 -21 -1 29 -29
right_child=1 6 -4 4 5 -7 11 24 9 -11 -12 12 13 -15 15 16 21 -19 -20 26 -22 22 -24 -25 25 -27 -28 28 -30 -31
leaf_value=-0.051369631214828862 -0.051163756846077227 -0.051668757308313641 -0.051450139642262721 0.041308194272519715 0.031240409290874918 0.054822551044695168 -0.030954981496347275 -0.051145732595197349 -0.0094505430077718913 0.03330021471936722 -0.017463119568683107 -0.049087235011173319 0.0087780636144169297 -0.045664538961553341 -0.051574508665638001 -0.0080057893727738857 -0.0435428236949712 -0.018101978480797341 0.1533177941624162 -0.016568020154535925 -0.051657680316094981 0.14391550643823056 -0.053386721145082819 0.020094791931686878 -0.034351360556387399 0.15757222020278405 -0.04810193893043696 -0.051494067885390717 -0.051515803099819395 0.37098867474523389
leaf_weight=453.28958363644779 90.190843159332871 44.576701151207089 227.8103108946234 17.277141530066729 1663.5203652344644 332.11562555283308 66.689635328948498 90.029736207798123 221.92018404230475 67.227553348988295 138.98725049197674 71.754552328959107 62.934007849544287 75.489561431109905 21.28592904470861 1.0761065185070036 5.2625394128262979 1.4236713983118532 1.1943221092224119 2.8393084537237874 35.528469268232584 0.75746301561593987 0.8139859177172184 2.0352238565683365 5.6315173991024485 0.4758753553032874 262.89379037730396 6.2484022043645409 23.478112272918224 0.70638862252235401
leaf_count=16251 2825 1431 7378 286 12388 2045 1887 2891 3902 859 2741 2094 1190 2520 726 15 100 26 13 87 1162 11 14 33 165 12 8307 222 824 11
internal_value=-0.000849205 0.00639276 0.0211052 0.0284772 0.0318151 0.035165 -0.0296573 -0.0160166 -0.00647779 0.000489112 -0.0109652 -0.0397998 -0.0305312 -0.0209123 -0.0495125 -0.0316634 0.00207196 0.04026 0.0768559 -0.0450941 -0.0381507 -0.0138337 0.041716 -0.0257954 -0.0491288 -0.0193971 -0.047765 -0.0507616 -0.0417044 -0.00858307
internal_weight=3995.46 3477.89 2469.9 2242.09 2151.9 1995.64 1007.99 429.862 333.724 289.148 156.264 578.129 210.178 138.424 517.572 33.8492 12.5633 3.6941 2.27043 367.951 102.218 8.86921 1.57145 7.29776 96.1371 6.10739 265.733 483.722 30.4329 6.95479
internal_count=72416 54170 27663 20285 17460 14433 26507 9260 6192 4761 3027 17247 5804 3710 18246 938 212 54 28 11443 3049 158 25 133 3068 177 8394 17308 1057 233
is_linear=0
shrinkage=0.05


Tree=17
num_leaves=31
num_cat=0
split_feature=1 2 1 0 2 2 2 1 0 1 0 0 1 1 2 0 2 1 4 2 0 4 1 1 1 1 0 0 2 0
split_gain=531.024 673.612 508.111 233.575 104.148 65.1511 35.2062 36.8111 29.7809 21.2521 18.9449 10.0229 13.4878 38.8598 4.70951 8.84365 2.80741 3.88507 2.68538 2.61871 4.75855 2.11031 4.92773 2.2447 1.12298 1.09049 3.87993 31.3642 1.03571 0.628673
threshold=139.9032967032974 263.50000000000006 140.84835164835326 39.007207207206427 2.5000000000000004 117.50000000000001 400.50000000000006 140.89230769230934 38.98018018017941 140.69450549450696 39.403603603602683 39.953153153152037 140.68351648351793 140.8703296703313 19.500000000000004 39.899099099098002 488.50000000000006 140.72747252747402 6.5000000000000009 107.50000000000001 39.935135135134026 10.500000000000002 139.78241758241816 139.85934065934131 139.99120879120957 139.87032967033034 39.142342342341514 39.115315315314497 239.50000000000003 38.989189189188416
decision_type=2 2 2 2 2 2 2 2 2 2 2 2 2 2 2 2 2 2 2 2 2 2 2 2 2 2 2 2 2 2
left_child=14 2 3 29 10 -6 7 8 -3 -10 -5 16 -13 -14 25 -16 17 -8 19 20 -17 23 -23 -20 -18 -1 27 -27 -21 -2
right_child=1 6 -4 4 5 -7 11 -9 9 -11 -12 12 13 -15 15 18 24 -19 21 28 -22 22 -24 -25 -26 26 -28 -29 -30 -31
leaf_value=-0.051290056420611185 -0.051626376991484306 -0.051594284327826548 -0.05137684437051826 0.037862545567194705 0.037718172675264089 0.018556122243367296 -0.029628322071776476 -0.051522299937236032 -0.014086518162319872 0.018719713455295061 -0.016848696127609673 -0.048800757017064572 0.0080008291652866725 -0.047114054656223758 -0.051495419241222251 0.13224731100760137 -0.01599088946184998 -0.051563458613434934 -0.043039086536768037 -0.053219808749171343 -0.0088222621070797869 0.12078976554772117 -0.05321116625087631 0.018752713097973408 -0.047855173025572219 -0.051419083157554384 -0.051439705773271199 0.25614082171733327 0.034225556118029944 -0.019537321354205269
leaf_weight=431.83449768461287 93.118488965556026 38.549635464325547 234.14155689626932 17.89031607657671 1477.1089731678367 633.97270619124174 58.48652228154242 70.000668933615088 163.23904390074313 70.767185842618346 136.90695501491427 67.143046928569674 60.480436507612467 67.872437570244074 20.278114618733525 1.3219879046082494 2.7958226483315221 30.825788982212543 5.0630014315247518 0.82850136235356309 1.0912343226373193 0.85451354458928086 0.77677730470895767 2.0708821304142475 251.32955393195152 5.9521128553897169 22.365275535732508 0.96304389089345921 0.5726647637784481 1.5517745055258263
leaf_count=16251 3070 1291 7934 286 9348 5974 1723 2447 3204 1061 2741 2056 1145 2384 726 13 87 1064 100 15 15 11 14 33 8307 222 824 11 11 48
internal_value=-0.000844584 0.00604866 0.0188776 0.0258461 0.029061 0.0319637 -0.0317136 -0.0191801 -0.0108736 -0.00416539 -0.0105256 -0.0396801 -0.0306425 -0.0211437 -0.0493537 -0.0310646 -0.0448246 -0.0371991 0.00186972 0.0368891 0.0684571 -0.0133698 0.0379352 -0.0251017 -0.0475046 -0.0506569 -0.0413191 -0.00858655 -0.0174804 -0.0511004
internal_weight=3970.15 3476.18 2594.69 2360.55 2265.88 2111.08 881.49 342.557 272.556 234.006 154.797 538.934 195.496 128.353 493.973 32.8577 343.438 89.3123 12.5796 3.81439 2.41322 8.76517 1.63129 7.13388 254.125 461.115 29.2804 6.91516 1.40117 94.6703
internal_count=72416 54170 29401 21467 18349 15322 24769 8003 5556 4265 3027 16766 5585 3529 18246 938 11181 2787 212 54 28 158 25 133 8394 17308 1057 233 26 3118
is_linear=0
shrinkage=0.05


Tree=18
num_leaves=31
num_cat=0
split_feature=0 2 2 2 0 0 2 3 0 4 2 0 2 2 0 0 0 0 2 0 4 2 4 0 2 0 0 0 0 0
split_gain=454.577 430.906 574.716 104.625 106.203 50.4446 44.4087 43.2263 25.7468 21.7041 21.3083 17.9576 9.72901 20.0394 9.67365 9.54801 9.33048 25.2695 8.97977 8.39274 8.17161 8.08935 7.00624 6.92323 5.8604 4.33157 4.83774 3.13015 2.91366 2.45027
threshold=39.115315315314497 1.0000000180025095e-35 249.50000000000003 86.500000000000014 39.583783783782799 39.799999999998938 393.50000000000006 1.0000000180025095e-35 40.412612612611333 10.500000000000002 29.500000000000004 39.034234234233445 109.50000000000001 272.50000000000006 39.953153153152037 40.007207207206072 40.403603603602328 40.367567567566304 249.50000000000003 39.124324324323503 5.5000000000000009 -1.0000000180025095e-35 8.5000000000000018 39.98918918918806 153.50000000000003 40.025225225224084 39.854054054052973 39.403603603602683 39.295495495494613 38.899099099098358
decision_type=2 2 2 2 2 2 2 2 2 2 2 2 2 2 2 2 2 2 2 2 2 2 2 2 2 2 2 2 2 2
left_child=11 7 3 4 10 -6 16 19 9 -5 -3 29 -13 18 28 -16 17 -4 24 22 -20 23 -2 -21 -14 26 -9 -23 -8 -1
right_child=1 2 6 8 5 -7 14 25 -10 -11 -12 12 13 -15 15 -17 -18 -19 20 21 -22 27 -24 -25 -26 -27 -28 -29 -30 -31
leaf_value=-0.051427162983235852 0.12452791992829496 0.030207014231424925 -0.013129910928502318 0.01644591405780298 0.061700806674452095 0.0360832317851493 -0.032278571490439688 0.078082499944481229 -0.053988826742661748 -0.0077684691230768023 0.0065820783517684363 -0.051401607261154919 0.044510288292402805 -0.035612334428672059 -0.0035943914648778664 -0.033913738307417909 -0.049388747602609695 0.056753024982845651 -0.05291791606001886 0.025948455382106817 0.16112594748562664 -0.033749860871780973 -0.051933260762816062 -0.037472807395061224 -0.0078379911980755914 0.11207649428343019 -0.053043192011405942 -0.044421601982166943 -0.047519843821740508 -0.043231764327813116
leaf_weight=288.66401745192707 1.4037328176200383 142.48321063071489 277.97222574427724 834.09305978380144 291.30779391527176 564.64750857278705 38.544880447909236 2.172351442277431 14.236667346209286 104.08951952122152 289.10108060762286 26.104045478627086 8.0038348250091129 46.561200065538287 30.713210321962833 168.01323831267655 15.749204650521277 13.56721152178943 0.58591737598180715 8.1616343446075934 1.8659962378442285 85.009977711364627 0.93863607756793488 9.1018847711384279 16.10278644412756 4.3767211586236954 1.0402371026575563 358.40812905132771 168.15508077852428 133.32946111448109
leaf_count=10774 39 937 5794 9062 1492 3446 1215 16 337 1187 2546 994 134 1513 762 5042 389 260 12 137 34 2931 34 149 284 35 21 12468 5460 4912
internal_value=-0.000837475 0.00578569 0.0128678 0.0253109 0.0346048 0.0448017 -0.0262389 -0.0386483 0.0127467 0.0137594 0.0143816 -0.0443375 -0.0251981 -0.0158433 -0.0371047 -0.0292279 -0.0119028 -0.00987781 0.0188148 -0.0405883 0.109977 -0.0410683 0.0538162 -0.00748928 0.00954259 0.0797138 0.035624 -0.0423757 -0.0446777 -0.0488378
internal_weight=3944.5 3423.29 2952.67 2239.96 1287.54 855.955 712.715 470.613 952.419 938.183 431.584 521.217 99.2238 73.1197 405.426 198.726 307.289 291.539 26.5585 463.024 2.45191 460.682 2.34237 17.2635 24.1066 7.58931 3.21259 443.418 206.7 421.993
internal_count=72416 53759 37929 19007 8421 4938 18922 15830 10586 10249 3483 18657 2971 1977 12479 5804 6443 6054 464 15758 46 15685 73 286 418 72 37 15399 6675 15686
is_linear=0
shrinkage=0.05


Tree=19
num_leaves=31
num_cat=0
split_feature=0 2 2 2 0 0 3 0 4 2 0 2 2 2 0 2 0 2 2 4 0 4 4 2 0 0 0 0 0 2
split_gain=426.729 397.885 518.1 113.598 81.1889 51.7762 39.2718 28.8159 25.0683 21.9472 18.1294 16.2409 9.58959 18.6345 8.97534 10.8399 7.75791 7.96357 7.08257 7.02752 6.35634 6.09164 5.66301 5.12998 4.64787 3.41965 3.17316 2.54556 2.84224 5.61697
threshold=39.115315315314497 1.0000000180025095e-35 281.50000000000006 103.50000000000001 39.592792792791805 39.790990990989933 1.0000000180025095e-35 40.412612612611333 10.500000000000002 408.50000000000006 39.034234234233445 11.500000000000002 109.50000000000001 272.50000000000006 39.953153153152037 643.50000000000011 39.124324324323503 -1.0000000180025095e-35 249.50000000000003 9.5000000000000018 39.98918918918806 5.5000000000000009 8.5000000000000018 115.50000000000001 39.241441441440578 40.385585585584316 39.403603603602683 38.98018018017941 38.989189189188416 323.50000000000006
decision_type=2 2 2 2 2 2 2 2 2 2 2 2 2 2 2 2 2 2 2 2 2 2 2 2 2 2 2 2 2 2
left_child=10 6 3 4 11 -6 16 8 -5 19 27 -3 -12 18 -11 -16 22 20 23 24 -18 -20 -2 -14 -4 -8 -19 -1 29 -29
right_child=1 2 9 7 5 -7 25 -9 -10 14 12 -13 13 -15 15 -17 17 26 21 -21 -22 -23 -24 -25 -26 -27 -28 28 -30 -31
leaf_value=-0.050205416792591273 0.10590775792979534 0.046909569308313546 0.010089177287968409 0.012694031860578131 0.056361258224688959 0.031596888986613163 0.0476905754291711 -0.053482421569958062 -0.014427843696629082 -0.044947564753303318 -0.051331435820664864 0.012725446029612057 0.075197914256432463 -0.035007157001066616 -0.039811867552153962 -0.015007992122004106 0.024091572679421712 -0.033107490113962156 -0.052768150109268656 -0.0309019765164209 -0.036792408770171814 0.13255365943963476 -0.051840219384953971 0.0010089417341648604 -0.014979730776255666 0.11622177392009768 -0.04403224275099802 -0.051347277411253257 -0.043688495063059635 0.027482942977417504
leaf_weight=349.19745759852231 1.5633822567760938 37.413120679557323 21.489406822249293 773.15295004844666 311.82374595478177 653.19307528063655 5.1986737623810759 18.425474802032113 95.748302932828665 187.80817959085107 24.86402478069067 487.33325381949544 2.6106700599193635 45.036778962239623 104.28131159208715 76.260040353983641 8.3462114557623881 82.3934276830405 0.55888372287154142 66.781641352921724 8.8140559978783113 2.1464498490095139 0.89442033879458893 21.682302599772811 132.44270337186754 2.8011184334754944 343.86760611459613 4.6399882435798627 44.715189319103956 4.4050407446920872
leaf_count=13717 39 253 458 9255 1578 3944 54 454 1233 6362 994 4139 25 1513 3366 2085 137 2931 12 1626 149 34 34 393 3176 18 12468 184 1646 139
internal_value=-0.000824613 0.0054823 0.0121535 0.0225561 0.0309916 0.0395989 -0.0381151 0.00839324 0.00970535 -0.0298245 -0.0439766 0.0151627 -0.0245585 -0.0153174 -0.0372952 -0.0293348 -0.0400851 -0.0405761 0.0175278 -0.0173566 -0.00718037 0.0942688 0.0485016 0.00898174 -0.01148 0.0716867 -0.0419206 -0.0486461 -0.0385178 -0.012956
internal_weight=3919.89 3420.03 2966.15 2377.09 1489.76 965.017 453.879 887.327 868.901 589.063 499.857 524.746 96.8991 72.0351 368.35 180.541 445.879 443.421 26.9983 220.714 17.1603 2.70533 2.4578 24.293 153.932 7.99979 426.261 402.958 53.7602 9.04503
internal_count=72416 53759 37929 20856 9914 5522 15830 10942 10488 17073 18657 4392 2971 1977 11813 5451 15758 15685 464 5260 286 46 73 418 3634 72 15399 15686 1969 323
is_linear=0
shrinkage=0.05


Tree=20
num_leaves=31
num_cat=0
split_feature=1 1 2 0 1 2 0 2 1 0 0 1 2 0 1 0 1 0 2 0 2 0 2 2 1 0 0 0 1 2
split_gain=454.636 550.865 433.485 194.192 76.7291 124.636 47.1402 24.8365 20.2448 57.5057 20.1876 16.6104 4.84987 7.80815 3.5611 3.353 9.18862 14.2256 26.9306 1.81636 3.87159 4.56927 1.22355 1.92798 1.18696 4.02954 22.1491 0.693179 2.44823 0.114846
threshold=139.9032967032974 140.8703296703313 281.50000000000006 39.007207207206427 140.28791208791316 68.500000000000014 39.592792792791805 408.50000000000006 140.79340659340815 39.962162162161043 38.98018018017941 140.70549450549598 19.500000000000004 39.899099099098002 140.51868131868261 40.358558558557299 140.98021978022152 40.421621621620339 404.50000000000006 39.935135135134026 66.500000000000014 39.92612612612502 60.500000000000007 62.500000000000007 139.87032967033034 39.142342342341514 39.115315315314497 38.989189189188416 140.1560439560449 4.5000000000000009
decision_type=2 2 2 2 2 2 2 2 2 2 2 2 2 2 2 2 2 2 2 2 2 2 2 2 2 2 2 2 2 2
left_child=12 2 3 27 5 -5 -6 10 14 -10 -4 -12 24 -14 -9 -3 17 18 -17 20 -15 -22 -21 -24 29 26 -26 -2 -29 -1
right_child=1 15 7 4 6 -7 -8 8 9 -11 11 -13 13 19 -16 16 -18 -19 -20 22 21 -23 23 -25 25 -27 -28 28 -30 -31
leaf_value=-0.051224137146545501 -0.051388386407423638 -0.051292474098414337 -0.05137951070490665 0.025892230364902152 0.020278271367476935 -0.0099343311397373409 0.040035480123093603 -0.046950123897563263 -0.047949836426890352 0.04444826672056347 -0.016041472541257939 0.01863819672839187 -0.051321437421451711 0.15444097971391227 -0.035788829509515369 0.39892850957048681 -0.051439072551028475 -0.05159756995008935 0.025759105969376618 -0.053260206294521321 -0.03694626270864667 0.046872332550928236 0.060929169733042743 -0.022858109296186886 -0.05122081290841516 -0.051264180570910561 0.18403745792036597 -0.051489419686484905 0.10674172593793081 -0.045242390215839305
leaf_weight=370.77602269127965 88.21752068027854 367.6051613278687 29.792363384738564 770.00409883074462 488.08235956728458 354.52948547899723 791.52123223617673 131.39303924515843 42.019856244325638 28.100540582090616 131.12685200199485 46.869342053309083 17.827654814347628 0.47704149782657435 156.68908971920609 0.55235405638813784 22.994995526969433 4.8584434408694506 3.8770983312278986 1.9356082305312154 3.1097596324980259 3.407640814781189 0.87223585695028294 3.225493747740984 5.1599493790417936 19.718271223828197 1.2411176413297651 1.0895039495080698 0.31517952680587757 8.2016566134989244
leaf_count=15913 3377 13908 1143 6657 3904 3303 5226 4685 1502 514 2855 769 726 6 5099 9 867 171 133 34 64 41 14 53 222 824 11 39 9 338
internal_value=-0.000810315 0.00525313 0.0124659 0.0214318 0.0241257 0.0145973 0.0324994 -0.0270377 -0.035015 -0.0109216 -0.0132857 -0.00690974 -0.0489287 -0.0298201 -0.0408794 -0.0499357 -0.0344859 0.00748679 0.0722934 -0.000396855 0.0169427 0.00687852 -0.0204986 -0.00502329 -0.0503842 -0.0400747 -0.00560604 -0.0508335 -0.0159859 -0.0510947
internal_weight=3895.59 3459.64 3059.75 2493.76 2404.14 1124.53 1279.6 565.991 358.203 70.1204 207.789 177.996 435.952 30.8554 288.082 399.888 32.2829 9.2879 4.42945 13.0278 6.99444 6.5174 6.03334 4.09773 405.097 26.1193 6.40107 89.6222 1.40468 378.978
internal_count=72416 54170 39082 22515 19090 9960 9130 16567 11800 2016 4767 3624 18246 938 9784 15088 1180 313 142 212 111 105 101 67 17308 1057 233 3425 48 16251
is_linear=0
shrinkage=0.05


Tree=21
num_leaves=31
num_cat=0
split_feature=1 1 0 3 1 0 0 1 0 0 0 1 1 3 0 0 1 0 3 4 0 1 1 0 0 1 1 0 0 1
split_gain=429.049 514.592 287.511 88.7542 93.5644 66.2479 142.688 73.5397 55.0529 42.2325 5.0714 7.60821 27.7249 4.86735 6.87989 3.42637 8.87878 12.4368 14.2904 2.12068 2.20501 2.54507 1.17763 3.61867 18.6319 0.183917 0.101503 0.462958 2.03594 0.0558981
threshold=139.9032967032974 140.8703296703313 39.034234234233445 1.0000000180025095e-35 140.02417582417664 39.799999999998938 39.601801801800811 140.57362637362772 39.592792792791805 39.340540540539642 38.899099099098358 140.44175824175946 140.57362637362772 1.0000000180025095e-35 39.899099099098002 40.358558558557299 140.98021978022152 40.421621621620339 1.0000000180025095e-35 4.5000000000000009 39.962162162161043 139.88131868131936 139.87032967033034 39.142342342341514 39.115315315314497 140.36483516483631 140.88131868132032 40.106306306305136 40.160360360359171 139.84835164835229
decision_type=2 2 2 2 2 2 2 2 2 2 2 2 2 2 2 2 2 2 2 2 2 2 2 2 2 2 2 2 2 2
left_child=13 2 10 4 9 6 -5 -7 -6 -4 -2 25 -13 22 -15 26 17 18 -17 -16 21 -21 29 24 -24 -12 27 -3 -29 -1
right_child=1 15 3 5 8 7 -8 -9 -10 -11 11 12 -14 14 19 16 -18 -19 -20 20 -22 -23 23 -25 -26 -27 -28 28 -30 -31
leaf_value=-0.051162036223548146 -0.051299561243352991 -0.051397782303801126 0.037879449222087053 0.0035215695497695918 0.015831638860419019 -0.01212239464443173 0.046471607341455293 0.019893118425437242 0.039981230749575235 -0.025241888052829328 -0.051427879705085812 0.055859418636157281 -0.048782993959999514 -0.051267199474638196 0.079135466626873263 0.25417487368863934 -0.051367032860386568 -0.051517533071237798 0.024145468641901296 -0.0073596893260013275 -0.053421279927204857 0.069796233707129521 -0.051162321974551922 -0.051206778123426104 0.15278496367097588 -0.040810645812558582 -0.051354106449973791 0.079341190035327469 -0.051754786638966002 -0.048203083066128978
leaf_weight=343.33601646497846 137.81486369110644 7.4770344570279104 34.424985501915216 569.53009990975261 361.68980308994651 553.73112410493195 292.78569714352489 265.30460249260068 679.0730778798461 115.09852412343025 30.269719932228327 9.2941703051328677 19.846357252448797 16.533822014927868 0.73544539511203666 0.81535709463060069 21.9034184794873 4.6284929104149342 3.9271285776048899 9.6693396251648647 2.2290840223431578 1.201638314872979 5.3679740447551039 18.834833703935146 1.4150628224015234 4.7140920776873818 341.00836490653455 0.38098026439547528 1.3302481267601249 16.739199316129088
leaf_count=15483 5611 293 335 8159 2552 6854 3061 3999 3460 2556 1168 338 809 704 9 23 867 171 119 170 40 16 242 825 11 180 13563 11 41 746
internal_value=-0.000801796 0.00497462 0.0117726 0.0158279 0.0262752 0.00843194 0.0181046 -0.00175183 0.0315887 -0.0107094 -0.0458947 -0.0342786 -0.015408 -0.04877 -0.0294974 -0.0497983 -0.0339414 0.00678874 0.0636935 -0.00348193 -0.00812012 0.00116885 -0.0502875 -0.0399295 -0.00861527 -0.0499972 -0.0512144 -0.0460285 -0.0225682 -0.0510245
internal_weight=3871.11 3455.05 3073.58 2871.64 1190.29 1681.35 862.316 819.036 1040.76 149.524 201.939 64.1243 29.1405 416.062 30.3693 381.471 31.2744 9.37098 4.74249 13.8355 13.1001 10.871 385.693 25.6179 6.78304 34.9838 350.197 9.18826 1.71123 360.075
internal_count=72416 54170 39082 30976 8903 22073 11220 10853 6012 2891 8106 2495 1147 18246 939 15088 1180 313 142 235 226 186 17307 1078 253 1348 13908 345 52 16229
is_linear=0
shrinkage=0.05


Tree=22
num_leaves=31
num_cat=0
split_feature=1 1 2 0 1 2 1 0 2 0 2 0 2 0 1 0 1 0 2 4 4 1 1 2 2 1 0 0 2 0
split_gain=405.009 481.069 379.367 174.241 63.9467 46.3652 24.472 62.8665 32.4539 19.772 10.8959 9.23627 5.06969 7.464 4.78567 3.51032 8.60735 10.9968 13.5717 2.22779 2.18739 1.86186 6.48795 1.82013 3.95101 1.22173 3.85875 15.5175 1.04574 0.608759
threshold=139.9032967032974 140.8703296703313 302.50000000000006 39.007207207206427 140.03516483516566 138.50000000000003 140.70549450549598 39.736936936935898 393.50000000000006 39.394594594593677 429.50000000000006 39.98918918918806 19.500000000000004 39.899099099098002 140.72747252747402 40.358558558557299 140.98021978022152 40.421621621620339 404.50000000000006 8.5000000000000018 6.5000000000000009 139.76043956044012 139.78241758241816 107.50000000000001 74.500000000000014 139.87032967033034 39.142342342341514 39.115315315314497 239.50000000000003 38.989189189188416
decision_type=2 2 2 2 2 2 2 2 2 2 2 2 2 2 2 2 2 2 2 2 2 2 2 2 2 2 2 2 2 2
left_child=12 2 3 29 9 -6 10 14 -9 -5 11 -4 25 -14 -8 -3 17 18 -17 -12 23 -22 -23 24 -15 -1 27 -27 -25 -2
right_child=1 15 6 4 5 -7 7 8 -10 -11 19 -13 13 20 -16 16 -18 -19 -20 -21 21 22 -24 28 -26 26 -28 -29 -30 -31
leaf_value=-0.050962553343968035 -0.051251126706827799 -0.051139792096210827 -0.018600599177258977 0.017347821184073763 0.027957010823693468 0.011951628435056087 -0.015336871960460087 0.076163738366654354 0.00024997435429130395 -0.016353763385627527 -0.039520016156672361 -0.050408376073542809 -0.051192958982854989 -0.013818659957737404 -0.050904652987976751 0.23926612185298757 -0.051298688508431882 -0.051441608419115409 0.019805347821200376 -0.050293409625576116 -0.053393840658914782 0.098587343685076018 -0.025404528948075506 -0.053190059763769483 0.10797011456913136 -0.051102011443218888 -0.051141098581918246 0.13066702513940007 0.035492189926090149 -0.019905740014641977
leaf_weight=343.81879340484738 85.498217135667801 333.59387401491404 102.73581369780004 63.552225638180971 1676.7818799428642 619.70939919352531 10.94754161685705 17.217624943703413 77.228185245767236 138.06837421096861 108.76596284843981 29.340991601347923 16.17302681691945 1.1970599852502339 69.477005438879132 0.84676202386617827 20.862234016880393 4.4090928006917238 4.1921217683702707 85.869528200477362 2.2573303841054422 1.315833158791065 5.3227094113826752 0.80949578806757905 1.5009154602885244 4.6794731263071325 17.88358517922461 1.5674359574913976 0.56404868885874748 1.5775314513593901
leaf_count=16251 3613 13908 2810 735 10202 6102 347 234 1759 2782 4021 777 726 15 2440 9 867 171 133 3205 42 26 90 15 13 222 824 11 11 55
internal_value=-0.000789809 0.00471307 0.0111231 0.0188441 0.0212676 0.0236379 -0.0286713 -0.0135754 0.0140892 -0.00573079 -0.0367512 -0.0256667 -0.0486094 -0.0285341 -0.0460631 -0.0496595 -0.0333679 0.00622536 0.0566848 -0.044273 -0.000273727 -0.0141666 -0.000827957 0.0300808 0.0539339 -0.0501993 -0.0393239 -0.00549364 -0.0167725 -0.0506832
internal_weight=3847.76 3450.67 3086.77 2585.19 2498.11 2296.49 501.583 174.87 94.4458 201.621 326.712 132.077 397.09 29.1404 80.4245 363.904 30.3102 9.44798 5.03888 194.635 12.9674 8.89587 6.63854 4.07152 2.69798 367.949 24.1305 6.24691 1.37354 87.0757
internal_count=72416 54170 39082 23489 19821 16304 15593 4780 1993 3517 10813 3587 18246 938 2787 15088 1180 313 142 7226 212 158 116 54 28 17308 1057 233 26 3668
is_linear=0
shrinkage=0.05


Tree=23
num_leaves=31
num_cat=0
split_feature=1 1 0 0 3 1 4 1 0 1 1 3 0 3 0 1 0 3 4 0 1 1 1 1 0 0 1 1 1 0
split_gain=382.414 450.086 246.251 79.8751 60.5794 72.7711 41.572 8.47211 5.36951 7.86587 25.9598 5.08072 6.59907 3.86005 3.57995 8.3405 9.83625 8.14097 1.80245 2.15873 3.22593 1.84178 7.3524 1.20766 3.47922 13.7531 0.849169 0.196402 0.111581 0.49277
threshold=139.9032967032974 140.8703296703313 39.034234234233445 40.421621621620339 1.0000000180025095e-35 140.01318681318762 10.500000000000002 140.82637362637522 38.899099099098358 140.44175824175946 140.57362637362772 1.0000000180025095e-35 39.899099099098002 1.0000000180025095e-35 40.358558558557299 140.98021978022152 40.421621621620339 1.0000000180025095e-35 6.5000000000000009 39.935135135134026 139.80439560439621 139.76043956044012 139.78241758241816 139.87032967033034 39.142342342341514 39.115315315314497 139.7494505494511 140.36483516483631 140.88131868132032 40.106306306305136
decision_type=2 2 2 2 2 2 2 2 2 2 2 2 2 2 2 2 2 2 2 2 2 2 2 2 2 2 2 2 2 2
left_child=11 2 8 4 5 -4 -6 -5 -2 27 -11 23 -13 -9 28 16 17 -16 19 20 -14 -20 -23 -1 25 -25 -21 -10 29 -3
right_child=1 14 3 7 6 -7 -8 13 9 10 -12 12 18 -15 15 -17 -18 -19 21 26 -22 22 -24 24 -26 -27 -28 -29 -30 -31
leaf_value=-0.050897891147851759 -0.051180701191918504 -0.051261859138742871 -0.012385130351224564 -0.051583535799821681 0.011822448167989559 0.0279107512484775 -0.013315724117937012 -0.031441204256895838 -0.051317657052290494 0.053617883503974263 -0.048435442602557575 -0.051144032300819278 -0.012333551857754733 0.057101827001673613 0.17154722993941829 -0.051233839753024826 -0.051369574638716768 0.019160898877748397 -0.053064868046456541 0.020420564870891608 0.095792319631383224 0.10808396700736522 -0.026672040215754429 -0.051049327738340256 -0.05108996208798227 0.11408267703531481 -0.053567983913942421 -0.039944970853392714 -0.051222336450205325 -0.020408847813868411
leaf_weight=326.63002554699779 125.77555079385638 6.7842305898666364 124.9802349768579 50.343477290123701 1464.278219172731 1082.2152492832392 185.27489753253758 2.2557196058332911 27.857412086799741 9.4857788514345902 18.16330105252564 14.996115956455471 1.2064272984862321 2.7093387581408024 1.1091578640043751 19.869255416095257 4.1997916474938393 4.1773003861308098 2.4292273409664613 0.65785804390907265 1.6109275743365286 1.2346254363656042 5.6189310923218727 4.8675886560231474 17.08242161013186 1.7016997337341306 0.94466317445039749 4.3952716663479796 309.37509907595813 1.5992328971624372
leaf_count=16229 5611 293 2560 1494 18223 6225 2395 36 1168 338 809 704 21 43 23 867 171 119 50 9 14 22 102 242 825 11 17 180 13563 52
internal_value=-0.000778665 0.00446592 0.0105158 0.0140755 0.0152277 0.0237389 0.00899897 -0.045438 -0.0453128 -0.0329921 -0.0134232 -0.0484508 -0.0282252 0.0168751 -0.0495247 -0.0328186 0.00575278 0.0511332 -0.00314294 0.0231375 0.0494914 -0.0156561 -0.00239659 -0.0501079 -0.0391977 -0.00827375 -0.0231946 -0.0497678 -0.0510681 -0.0453763
internal_weight=3823.83 3444.85 3097.73 2912.06 2856.75 1207.2 1649.55 55.3085 185.677 59.9018 27.6491 378.981 28.6988 4.96506 347.114 29.3555 9.48625 5.28646 13.7027 4.41988 2.81735 9.28278 6.85356 350.282 23.6517 6.56929 1.60252 32.2527 317.759 8.38346
internal_count=72416 54170 39082 30976 29403 8785 20618 1573 8106 2495 1147 18246 939 79 15088 1180 313 142 235 61 35 174 124 17307 1078 253 26 1348 13908 345
is_linear=0
shrinkage=0.05


Tree=24
num_leaves=31
num_cat=0
split_feature=1 1 0 0 3 1 0 1 0 1 1 3 0 0 1 0 1 3 4 0 4 1 1 1 0 0 1 1 1 0
split_gain=361.182 421.325 227.792 73.5221 53.7778 66.078 40.3247 8.23014 5.49054 7.77763 23.6526 5.1706 6.4365 3.66051 8.09575 8.84138 6.67241 3.35684 1.62446 1.88253 3.02078 1.77077 6.1899 1.21991 3.40805 12.0986 0.806375 0.203214 0.116457 0.498727
threshold=139.9032967032974 140.8703296703313 39.034234234233445 40.421621621620339 1.0000000180025095e-35 140.0571428571437 39.799999999998938 140.82637362637522 38.899099099098358 140.44175824175946 140.57362637362772 1.0000000180025095e-35 39.899099099098002 40.358558558557299 140.98021978022152 40.421621621620339 140.95824175824347 1.0000000180025095e-35 6.5000000000000009 39.935135135134026 5.5000000000000009 139.76043956044012 139.78241758241816 139.87032967033034 39.142342342341514 39.115315315314497 139.7494505494511 140.36483516483631 140.88131868132032 40.106306306305136
decision_type=2 2 2 2 2 2 2 2 2 2 2 2 2 2 2 2 2 2 2 2 2 2 2 2 2 2 2 2 2 2
left_child=11 2 8 4 5 -4 -6 -5 -2 27 -11 23 -13 28 15 16 -15 -9 19 20 -14 -20 -23 -1 25 -25 -21 -10 29 -3
right_child=1 13 3 7 6 -7 -8 17 9 10 -12 12 18 14 -16 -17 -18 -19 21 26 -22 22 -24 24 -26 -27 -28 -29 -30 -31
leaf_value=-0.050838083653943059 -0.051121807187874693 -0.05119893532619 -0.0025329190794751112 -0.051413950288189972 0.015801979918558754 0.027771938960992962 0.00018546736471685571 -0.030716759442088661 -0.051252001817610429 0.048395861555252773 -0.048249017662885328 -0.051087084183089826 -0.015343533440065935 0.022133438772580481 -0.0511723021887475 -0.051301222051829388 0.17116673827219914 0.051575873396068755 -0.052908914429702317 0.01907637933880316 0.088084545419928037 0.093432053439447854 -0.025953204098475038 -0.050997107074109732 -0.051035709465006719 0.10112452479519816 -0.053384779381419944 -0.039453560457767212 -0.051161364594587116 -0.019772163027345937
leaf_weight=311.05641011334956 119.77575789764524 6.4610908124595863 219.32981370575726 48.042183050885797 883.03131151385605 999.94698465801775 777.20928488112986 2.1950329169630995 26.531879188492898 9.9705265350639838 17.342555459588766 14.280246801674368 1.2022089660167685 4.6372045651078242 18.922375589609146 4.0001539122313261 0.89616830646991719 2.8458881713449955 2.3173915930092317 0.66871232166886307 1.7102691307663918 1.3534331396222112 5.4891772903501987 4.6348151005804565 16.266139272600412 1.8204232603311536 0.90159722790122032 4.2316812854260197 294.62856654822826 1.5689764637500045
leaf_count=16229 5611 293 3517 1494 11220 5268 9398 36 1168 338 809 704 16 117 867 171 25 43 50 9 19 22 102 242 825 11 17 180 13563 52
internal_value=-0.000763105 0.00423208 0.00993999 0.0132722 0.0143471 0.0223205 0.00849141 -0.0450366 -0.0450044 -0.0323882 -0.0129692 -0.048292 -0.0276233 -0.0493875 -0.0322423 0.00533053 0.0462704 0.0157421 -0.00306324 0.0215998 0.0453916 -0.015133 -0.00233941 -0.0500211 -0.0388368 -0.00809772 -0.0225274 -0.0496291 -0.0509994 -0.0450585
internal_weight=3803.27 3441.57 3110.45 2932.6 2879.52 1219.28 1660.24 53.0831 177.852 58.0766 27.3131 361.701 27.923 331.115 28.4559 9.53353 5.53337 5.04092 13.6428 4.48279 2.91248 9.16 6.84261 333.778 22.7214 6.45524 1.57031 30.7636 302.659 8.03007
internal_count=72416 54170 39082 30976 29403 8785 20618 1573 8106 2495 1147 18246 939 15088 1180 313 142 79 235 61 35 174 124 17307 1078 253 26 1348 13908 345
is_linear=0
shrinkage=0.05


Tree=25
num_leaves=31
num_cat=0
split_feature=1 1 0 0 3 1 4 1 0 1 1 3 0 0 1 0 3 3 4 0 1 1 0 0 1 1 0 0 0 1
split_gain=341.185 394.656 210.915 67.7503 47.8594 59.0448 37.1272 8.00179 5.60989 7.68377 21.6477 5.26385 6.27777 3.74758 7.8641 7.98049 5.09609 2.93565 1.63358 1.93919 2.37491 1.23062 3.33632 10.7565 0.210225 0.121523 0.504403 1.99412 0.099688 0.0680262
threshold=139.9032967032974 140.8703296703313 39.034234234233445 40.421621621620339 1.0000000180025095e-35 140.01318681318762 10.500000000000002 140.82637362637522 38.899099099098358 140.44175824175946 140.57362637362772 1.0000000180025095e-35 39.899099099098002 40.358558558557299 140.98021978022152 40.421621621620339 1.0000000180025095e-35 1.0000000180025095e-35 4.5000000000000009 39.962162162161043 139.88131868131936 139.87032967033034 39.142342342341514 39.115315315314497 140.36483516483631 140.88131868132032 40.106306306305136 40.160360360359171 40.439639639638351 139.84835164835229
decision_type=2 2 2 2 2 2 2 2 2 2 2 2 2 2 2 2 2 2 2 2 2 2 2 2 2 2 2 2 2 2
left_child=11 2 8 4 5 -4 -6 28 -2 24 -11 21 -13 25 15 16 -15 -9 -14 20 -20 29 23 -23 -10 26 -3 -28 -5 -1
right_child=1 13 3 7 6 -7 -8 17 9 10 -12 12 18 14 -16 -17 -18 -19 19 -21 -22 22 -24 -25 -26 -27 27 -29 -30 -31
leaf_value=-0.050948095273128838 -0.051065913271833574 -0.051139215817304157 -0.011790157784391422 -0.046695760374427582 0.010643135122427662 0.02466945906872604 -0.013129271419646616 -0.029993254489769597 -0.051189684746055841 0.043908223760514606 -0.048059513204888382 -0.051033025909659774 0.066271189369323899 0.12551235424238102 -0.051113898618826197 -0.051236354983207111 0.015582197993284861 0.046830781703279811 -0.0074048529220214349 -0.053083671010149859 0.06648165841849564 -0.050947533711793905 -0.050984209953731041 0.09068094795586279 -0.038952560488635955 -0.051103498187254362 0.080829783057142696 -0.051521017708722985 -0.05244215083219024 -0.047354241019274518
leaf_weight=282.40172549895942 114.05578436329961 6.1529757697135201 123.42945460230112 9.5273060426115972 1485.7750753648579 1106.6943684685975 184.65491398796439 2.1370724551379672 25.26785286329687 10.427577871829273 16.560173010453582 13.597816817462446 0.80137132853269477 1.3875377215445057 18.019567977637053 3.8097598776221275 4.3890323750674725 2.9740263521671295 9.601097244769333 1.9599788561463345 1.2265005037188519 4.4129541777074364 15.488065376877783 1.9256384521722791 4.0757739655673495 280.56870027258992 0.37677155807614315 1.1634008605033157 36.316164903342724 13.811209935694931
leaf_count=15483 5611 293 2560 332 18223 6225 2395 36 1168 338 809 704 9 23 867 171 119 43 170 40 16 242 825 11 180 13563 11 41 1162 746
internal_value=-0.000746924 0.00401148 0.00940019 0.0125228 0.0135268 0.0210111 0.00801525 -0.044632 -0.04469 -0.0317804 -0.0125248 -0.0481311 -0.0270142 -0.0492481 -0.0316492 0.00493888 0.0419875 0.0147088 -0.00297962 -0.00731943 0.000964671 -0.0499363 -0.0384785 -0.00792138 -0.04949 -0.0509335 -0.0447338 -0.0191441 -0.0512479 -0.0507805
internal_weight=3782.99 3437.76 3121.9 2951.51 2900.55 1230.12 1670.43 50.9546 170.387 56.3314 26.9878 345.226 27.1868 315.868 27.6059 9.58633 5.77657 5.1111 13.5889 12.7876 10.8276 318.04 21.8267 6.33859 29.3436 288.262 7.69315 1.54017 45.8435 296.213
internal_count=72416 54170 39082 30976 29403 8785 20618 1573 8106 2495 1147 18246 939 15088 1180 313 142 79 235 226 186 17307 1078 253 1348 13908 345 52 1494 16229
is_linear=0
shrinkage=0.05


Tree=26
num_leaves=31
num_cat=0
split_feature=1 1 2 0 1 2 0 1 0 2 2 0 2 0 1 0 1 0 2 4 4 2 4 1 0 0 2 2 0 1
split_gain=322.317 369.901 304.397 128.071 55.0832 102.154 39.4756 22.8752 58.167 27.657 10.7338 9.51479 5.47122 6.75475 4.89728 3.82744 7.63747 7.24963 8.1826 2.4788 1.56476 2.4045 2.1046 1.26816 3.51782 9.36183 0.152224 1.49968 3.46988 0.126554
threshold=139.9032967032974 140.8703296703313 302.50000000000006 38.989189189188416 140.28791208791316 76.500000000000014 39.592792792791805 140.70549450549598 39.736936936935898 441.50000000000006 438.50000000000006 39.98918918918806 19.500000000000004 39.899099099098002 140.72747252747402 40.358558558557299 140.98021978022152 40.421621621620339 404.50000000000006 8.5000000000000018 4.5000000000000009 35.500000000000007 10.500000000000002 139.87032967033034 39.142342342341514 39.115315315314497 4.5000000000000009 5.5000000000000009 38.87207207207134 140.88131868132032
decision_type=2 2 2 2 2 2 2 2 2 2 2 2 2 2 2 2 2 2 2 2 2 2 2 2 2 2 2 2 2 2
left_child=12 2 3 -2 5 -5 -6 10 14 -10 11 -4 23 -14 -9 29 17 18 -17 -12 -15 -22 -23 26 25 -25 -1 28 -28 -3
right_child=1 15 7 4 6 -7 -8 8 9 -11 19 -13 13 20 -16 16 -18 -19 -20 -21 21 22 -24 24 -26 -27 27 -29 -30 -31
leaf_value=-0.050902197120686582 -0.05102106455590847 -0.044408335750445976 -0.01806453328025719 0.018844876212093541 0.013482421352196169 -0.013453361085965241 0.030742096186110471 -0.014206760093952218 0.056739205692964284 -0.0035920400366561836 -0.038731910025359223 -0.050288794113128234 -0.050972863444888029 0.068431992791655627 -0.050810056788258506 0.15820911218748634 -0.05105846234272432 -0.051174787829772042 0.0098837754352947022 -0.050716840953672987 0.083917089827843239 -0.018660878712348738 0.044782311840364145 -0.050898564388158353 -0.050930351435554688 0.082057616222331112 -0.050879720850271773 -0.051022517853153017 0.20580887713712573 -0.051048573531234688
leaf_weight=276.60622704587877 70.368776949122548 7.3735001329332581 104.08302072063088 838.2219692338258 540.04337783530354 345.81537393480539 857.0207249186933 10.615788746625183 26.058518502861261 70.088827852159739 98.61211303435266 29.371532671153545 13.300080835819246 0.78183533996343513 65.647195106372237 1.1510022208094612 17.158884294331074 3.6282055582851171 4.8387519363313913 76.698722913861275 0.72179719805717368 9.8096468262374383 1.5081603936851014 3.8461078628897694 14.700660852715371 2.0190152376890182 0.40778776817023654 5.6294378098100424 0.19442852959036827 267.16510941833258
leaf_count=15913 3613 345 2965 6863 4156 3342 5515 347 368 1625 3901 835 726 8 2440 9 867 171 133 3112 11 170 23 222 824 11 24 306 8 13563
internal_value=-0.000730354 0.00380241 0.00889185 0.0155315 0.0173459 0.0094117 0.0240703 -0.0276951 -0.0131058 0.0127594 -0.0358415 -0.0251567 -0.047966 -0.0260087 -0.0457149 -0.0491103 -0.0310662 0.00460093 0.0383862 -0.0439753 -0.000112628 -0.00456382 -0.0102067 -0.0498564 -0.0378685 -0.00512961 -0.0507281 -0.043 0.0319935 -0.0508702
internal_weight=3763.49 3433.96 3132.65 2651.47 2581.1 1184.04 1397.06 481.176 172.41 96.1473 308.765 133.455 329.525 26.1215 76.263 301.315 26.7768 9.61796 5.98975 175.311 12.8214 12.0396 11.3178 303.404 20.5658 5.86512 282.838 6.23165 0.602216 274.539
internal_count=72416 54170 39082 23489 19876 10205 9671 15593 4780 1993 10813 3800 18246 938 2787 15088 1180 313 142 7013 212 204 193 17308 1057 233 16251 338 32 13908
is_linear=0
shrinkage=0.05


Tree=27
num_leaves=31
num_cat=0
split_feature=0 2 2 2 0 0 3 0 0 4 2 2 0 2 2 2 0 0 0 4 0 2 0 0 4 2 0 0 0 0
split_gain=261.549 228.857 297.546 65.0128 59.2346 45.5184 33.0488 20.8034 19.4905 14.7269 11.4562 11.4351 10.51 11.2883 10.3404 17.1357 7.49771 17.7233 10.7332 7.43268 5.84723 5.79858 5.98807 4.09603 3.44316 3.2453 2.8945 2.78597 1.42874 4.22289
threshold=39.115315315314497 1.0000000180025095e-35 302.50000000000006 117.50000000000001 39.592792792791805 39.790990990989933 1.0000000180025095e-35 40.421621621620339 38.98018018017941 10.500000000000002 408.50000000000006 11.500000000000002 39.953153153152037 643.50000000000011 109.50000000000001 429.50000000000006 39.682882882881863 39.781981981980927 39.241441441440578 5.5000000000000009 39.124324324323503 -1.0000000180025095e-35 39.98918918918806 39.403603603602683 8.5000000000000018 115.50000000000001 40.385585585584316 39.295495495494613 40.241441441440223 40.025225225224084
decision_type=2 2 2 2 2 2 2 2 2 2 2 2 2 2 2 2 2 2 2 2 2 2 2 2 2 2 2 2 2 2
left_child=8 6 3 4 11 -6 20 9 -1 -5 16 -3 27 -14 -10 19 18 -18 -4 -16 24 22 -22 -23 -2 -21 28 -12 29 -8
right_child=1 2 10 7 5 -7 26 -9 14 -11 12 -13 13 -15 15 -17 17 -19 -20 25 21 23 -24 -25 -26 -27 -28 -29 -30 -31
leaf_value=-0.049257046496559785 0.075910309939705045 0.033017354841110923 -0.00369314515076569 0.006810760622358328 0.04194724829191554 0.0202422531927796 0.027937469442172482 -0.053319172826512953 -0.050929760398610857 -0.01489417199932954 -0.029709491553450759 0.0059351300098362649 -0.037023455849528632 -0.0095568836938516016 -0.046361811645080533 -0.041369206580811363 0.042306824605289978 -0.018105554448489797 -0.0493290372327111 0.0598602632412161 0.01987803202270616 -0.027375743697355671 -0.03788829030765796 -0.041583772321892837 -0.054111112441558286 0.005343599839168353 0.10285292095430905 -0.046662008165985487 -0.010539895021687701 0.14574623958819533
leaf_weight=240.50254079140723 1.8043951243162148 41.875400751829147 20.497519467025995 749.33212897740304 357.42826889827847 745.06577496416867 3.4085865635424835 15.825665980577467 29.10113107226789 87.250523809343576 29.931617332622409 563.1901519075036 85.440516823902726 66.539950337260962 7.0424386430531731 40.726043876260519 14.204832311719654 83.53469149582088 34.687985744327307 2.9093031343072644 8.7754573151469248 62.85972797498107 9.1783294863998872 262.80510514974594 0.70934057235717762 44.252233784645796 2.9957347810268402 127.34407823905349 1.056501932442188 0.97918438911437977
leaf_count=13717 39 253 478 9206 1774 4321 37 455 1687 1197 1164 4701 3366 2085 190 1845 375 2357 999 37 137 2931 149 12468 34 1181 18 5198 9 8
internal_value=-0.000718171 0.00362552 0.00808413 0.0147503 0.0203801 0.027279 -0.0343768 0.00347273 -0.0409544 0.00454707 -0.0288391 0.00780944 -0.0343747 -0.0249981 -0.024855 -0.0168618 -0.0176446 -0.00932561 -0.0323785 0.00155187 -0.0367605 -0.0373163 -0.00965325 -0.0388413 0.0392201 0.00870663 0.0633796 -0.0434357 0.0416592 0.0542279
internal_weight=3741.26 3376.72 3022.15 2559.97 1707.56 1102.49 354.572 852.408 364.534 836.583 462.181 605.066 309.256 151.98 124.031 94.93 152.925 97.7395 55.1855 54.204 346.132 343.619 17.9538 325.665 2.51374 47.1615 8.44001 157.276 5.44427 4.38777
internal_count=72416 53759 37929 21907 11049 6095 15830 10858 18657 10403 16022 4954 11813 5451 4940 3253 4209 2732 1477 1408 15758 15685 286 15399 73 1218 72 6362 54 45
is_linear=0
shrinkage=0.05


Tree=28
num_leaves=31
num_cat=0
split_feature=0 2 2 2 0 0 3 0 4 2 0 0 2 0 4 2 4 0 4 0 0 0 0 0 2 2 4 3 2 4
split_gain=246.627 219.347 286.996 57.4708 54.205 39.957 30.5154 19.6226 12.5075 11.8402 11.2211 11.7402 9.95781 9.81659 7.74522 5.61734 5.57896 5.19087 6.9688 6.305 13.3334 8.96661 4.93295 4.08053 3.36895 7.13033 4.26007 5.74833 2.97067 2.73882
threshold=39.043243243242451 302.50000000000006 1.0000000180025095e-35 117.50000000000001 39.592792792791805 39.790990990989933 1.0000000180025095e-35 40.421621621620339 10.500000000000002 441.50000000000006 39.953153153152037 40.007207207206072 29.500000000000004 40.358558558557299 8.5000000000000018 -1.0000000180025095e-35 9.5000000000000018 39.061261261260462 10.500000000000002 39.682882882881863 39.781981981980927 39.268468468467596 38.98018018017941 39.403603603602683 171.50000000000003 429.50000000000006 6.5000000000000009 1.0000000180025095e-35 412.50000000000006 6.5000000000000009
decision_type=2 2 2 2 2 2 2 2 2 2 2 2 2 2 2 2 2 2 2 2 2 2 2 2 2 2 2 2 2 2
left_child=22 2 6 4 12 -6 15 8 -5 17 -11 14 -4 -13 -12 16 -2 18 29 21 -21 -19 -1 -17 -24 26 28 -28 -26 -3
right_child=1 9 3 7 5 -7 -8 -9 -10 10 11 13 -14 -15 -16 23 -18 19 -20 20 -22 -23 24 -25 25 -27 27 -29 -30 -31
